nelements=1
elements: Cu

lmax=4

embedding-function: FinnisSinclairShiftedScaled
4 FS parameters:  1.000000 1.000000 1.000000 0.500000
core energy-cutoff parameters: 100000.000000000000000000 250.000000000000000000
E0: 0.000000000000000000

radbasename=ChebExpCos
nradbase=15
nradmax=4
cutoffmax=7.500000
deltaSplineBins=0.001000
core repulsion parameters: 0.000000000000000000 0.000000000000000000
radparameter= 5.250000000000000000
cutoff= 7.500000000000000000
dcut= 0.010000000000000000
crad= 0.477019714725458788 0.312779661630381733 0.655927836966758715 -1.533716305171956007 -0.553969946509830669
 0.029337106072408199 -1.633159089696970767 0.335957250408315367 0.164919794642366724 0.036990733141262097
 1.186029677520280767 -0.120144767483765402 -0.049823002375211860 -0.634644350699265836 0.033380906252935418
 -0.850238989444771609 -0.104411426819377637 0.046933105597222489 -0.215152710875504638 -0.065650313692782680
 0.641299509419971714 1.115064828040806422 -0.914558732882894021 0.239827557618073006 0.244242656403220848
 -0.338570515401990846 1.845874208102750380 1.326204909837553236 1.590947639126353952 1.337830090992169207
 -0.185152122037656630 0.052867814104033961 -0.182511775539220572 -0.119212712574677415 0.428021874086189635
 0.153330376684530312 -0.140952944866603008 -0.052676782528911052 0.041209790666098436 -0.067335587101392633
 1.174499111426585252 2.550108288947165125 -2.132717539541686413 0.835049144961889978 0.649779273190109530
 -2.135091213042776381 1.761998222480296805 0.866495088136679303 1.405187972625012494 1.133973223954913845
 0.563314327338731768 0.988529366147951949 0.592704274079043358 0.682447289492325693 1.702946445589788693
 0.489009994755139288 -0.414335534873593037 -0.150495810525892976 -0.022782738783453167 -0.022438286096204629
 0.212297827379637427 1.776870739933984256 -1.379929648558147592 1.423172198567404845 0.646876324781731182
 0.691435067336325426 0.602696361605007502 0.940401807812008439 0.927649144541747517 1.831212782503544467
 -0.416996450298745436 -0.278059550054119975 -0.273788864375015484 -0.343316287642171480 -0.119754971760249393
 1.733046490153846708 0.461080298737988947 0.816202559122137461 0.632420802350255662 1.145367999582048490
 -0.638373065489436176 -0.221884429931782562 0.916415365721020336 1.583148917475328155 0.070928788622861186
 3.086354234993021972 -1.603435120247868051 0.581102677534968470 -0.665084783221287390 1.882373866872230739
 -0.308214024143192100 -0.309835074440032443 -0.013352743310787460 -0.180633607096547688 -0.830704174285494146
 0.694909063721299569 -0.394715532520809598 -0.089475383198754366 -0.678318750418285488 -0.118283033611475963
 0.402828761647230138 -0.836207137129279965 2.171386147216862295 1.200997983532270608 -0.738865772560534761
 0.631240025827816909 -2.046551727292005296 0.356939412505965115 -1.543562944071915410 1.214916221805103946
 -0.239014896983532954 0.005077850750450949 -0.050775698776962877 0.021873322574550578 -0.225852375571379271
 0.422566001033019667 -0.175734952755026097 0.071832730907608847 -0.526889772536207279 -0.631242151701461585
 1.685221057468658801 -0.125662125169251904 1.267456020334132738 0.608139441454627505 -1.268077208083165264
 -2.832559749602016730 -0.438233039437279370 0.348708956105039936 -0.717181126104094346 0.345433869192352083
 0.065685223674246812 0.117589011780668440 -0.225501956545067300 0.174544783002221288 0.568734352050631720
 0.158779143019196628 -0.120432160509213890 0.192362104414870311 -0.058021001960132441 -0.351327964150964511
 0.869897385549439295 0.000417137887603672 -0.166480529052363546 0.264164049920452337 -1.130444821192254423
 -1.533787461460894619 0.695729236058553524 0.078235096904655882 0.520195253380949074 -0.097378662057049273
 0.514248285194882970 -0.103613804071071514 -0.126048362568627142 0.238703167527453436 0.205815220890754991
 0.097950079973514376 -0.148563528928485206 0.243620481427033631 0.178302977284456543 0.541113271116196226
 -0.655433068775815419 -0.414238331615846611 -0.396506112257903109 0.294565632585927994 -0.377188972589817151
 1.742214610590085755 0.028357748723725221 -0.488635636396383410 0.452216198243218959 0.045318758481614180
 0.492693695173885504 -0.079021819196139459 0.091606677340670267 0.201795397153722161 -0.397102476142766225
 0.127036970464494359 -0.002445677189364311 0.235083130594320566 0.002102443078789648 0.470738349873108197
 -0.334045546436177787 0.000124499594877290 0.163330543604309542 0.474742159425349863 0.341607541582057306
 1.051571057041843060 -0.846133791730769080 -0.762212998485135018 -0.512599404910095591 0.411474977554578514
 -0.018277094740119095 0.191605123842161162 -0.027791385921671481 0.111072162472568167 -0.101601577823365152
 0.006360452053001745 0.337382425431760558 0.216699644192995172 -0.120171814351550207 -0.511223974064621722
 0.610993914473461297 0.628156872196462990 0.194775791964077266 0.591385959447505272 0.396377802052880368
 -1.360797128664166022 -0.395183928269008056 -0.529781114847144963 -0.553366539944421865 0.594766519551858552
 -0.270932156494099685 0.048206237408705561 -0.305233758952986212 0.030910905096357036 0.206905848409048465
 -0.192003033117721433 0.544158947315858565 0.244048623024159805 0.188408259019875873 -0.417429691625209265
 -0.180367478990764551 0.127806541921389127 -0.345176698107073576 0.518228290649645595 0.024746073981819317
 -0.430717851935893847 0.456124575415720601 -0.298505873716194803 0.480699789240992659 0.539489232488409298
 -0.117788709856349580 -0.200205462566952430 -0.141669168006395674 -0.005128339482081712 -0.048790799579775272
 -0.128666124172517105 0.414998484081725572 0.268718045721670240 0.523563445398481098 0.580855220960082130
 -0.997356583914903450 -0.388306692378726392 -0.480768945480574195 0.262087247750109276 -0.030204626075594310
 0.977061839865694948 0.292779964153720762 -0.197563670021829951 0.627810124565996608 0.335995820123515698
 -0.127816608846224283 0.201266620150866993 0.270425961676113102 0.030573875033680274 0.143684708152932772
 0.174906158760531505 0.184965666690535629 0.125200411385007981 0.422816377580847724 0.170399533614338350
 0.871695524960984569 0.367490722738356257 0.239778382083484842 0.239031713804519763 0.017476201679459617
 -0.210445878944712728 -0.802540788326768006 -0.091908499392852672 -0.823561194378317429 0.052390444704518813
 0.173099981585364965 -0.093328810340380070 -0.229125271398166241 0.036536390332711367 -0.275332725114524779
 -0.192204010279635407 0.135075890930195591 -0.177666977295298095 0.202281213657026226 -0.557349535499983006
 -0.575782221650742887 -0.019395588892398841 -0.135189725435635399 -0.002530628756946703 0.060353971376524866
 -0.071260789015633666 0.338308234633447558 -0.328786605719901592 0.246026080343771658 -0.118336000939183908
 -0.299588909766338396 0.025160768934317321 -0.008242609191672523 -0.027819573788370251 0.109422978306679020
 -0.007876836877132351 -0.067347976358534331 0.289570742585482932 -0.376034106586146943 0.210657661337111307

rankmax=5
ndensitymax=2

num_c_tilde_max=208
num_ms_combinations_max=15
total_basis_size_rank1: 15 
ctilde_basis_func: rank=1 ndens=2 mu0=0 mu=( 0 )
n=( 1 )
l=( 0 )
num_ms=1
< 0 >:  0.778052138133769611  -0.641315789765348421 
ctilde_basis_func: rank=1 ndens=2 mu0=0 mu=( 0 )
n=( 2 )
l=( 0 )
num_ms=1
< 0 >:  2.237765914967914327  0.156200525455774425 
ctilde_basis_func: rank=1 ndens=2 mu0=0 mu=( 0 )
n=( 3 )
l=( 0 )
num_ms=1
< 0 >:  4.436927047649930955  -0.133430177646914283 
ctilde_basis_func: rank=1 ndens=2 mu0=0 mu=( 0 )
n=( 4 )
l=( 0 )
num_ms=1
< 0 >:  1.475779033497163439  -1.283014773083749116 
ctilde_basis_func: rank=1 ndens=2 mu0=0 mu=( 0 )
n=( 5 )
l=( 0 )
num_ms=1
< 0 >:  -2.598344508255279628  -1.531790846091633185 
ctilde_basis_func: rank=1 ndens=2 mu0=0 mu=( 0 )
n=( 6 )
l=( 0 )
num_ms=1
< 0 >:  -1.692642811628403132  0.330513242101460547 
ctilde_basis_func: rank=1 ndens=2 mu0=0 mu=( 0 )
n=( 7 )
l=( 0 )
num_ms=1
< 0 >:  1.434263294093205410  2.036461114078592871 
ctilde_basis_func: rank=1 ndens=2 mu0=0 mu=( 0 )
n=( 8 )
l=( 0 )
num_ms=1
< 0 >:  0.770393930955490136  0.734636533723666885 
ctilde_basis_func: rank=1 ndens=2 mu0=0 mu=( 0 )
n=( 9 )
l=( 0 )
num_ms=1
< 0 >:  -1.562596764409919459  -1.940858779980898507 
ctilde_basis_func: rank=1 ndens=2 mu0=0 mu=( 0 )
n=( 10 )
l=( 0 )
num_ms=1
< 0 >:  -0.302522546299715700  -1.696413529405806031 
ctilde_basis_func: rank=1 ndens=2 mu0=0 mu=( 0 )
n=( 11 )
l=( 0 )
num_ms=1
< 0 >:  1.562847247259363304  1.387511550357582335 
ctilde_basis_func: rank=1 ndens=2 mu0=0 mu=( 0 )
n=( 12 )
l=( 0 )
num_ms=1
< 0 >:  -0.552650187037561635  2.257672047039532170 
ctilde_basis_func: rank=1 ndens=2 mu0=0 mu=( 0 )
n=( 13 )
l=( 0 )
num_ms=1
< 0 >:  -1.307877766316615453  -0.708937109864093529 
ctilde_basis_func: rank=1 ndens=2 mu0=0 mu=( 0 )
n=( 14 )
l=( 0 )
num_ms=1
< 0 >:  1.637587383926653040  -2.004289305879557670 
ctilde_basis_func: rank=1 ndens=2 mu0=0 mu=( 0 )
n=( 15 )
l=( 0 )
num_ms=1
< 0 >:  -0.703138145378746859  1.262244364273240826 
total_basis_size: 193 
ctilde_basis_func: rank=2 ndens=2 mu0=0 mu=( 0  0 )
n=( 1  1 )
l=( 0  0 )
num_ms=1
< 0  0 >:  -0.015147101240891227  0.024505804537721141 
ctilde_basis_func: rank=2 ndens=2 mu0=0 mu=( 0  0 )
n=( 1  1 )
l=( 1  1 )
num_ms=2
< 0  0 >:  -0.004673440923791109  -0.077126427796871636 
< 1  -1 >:  0.009346881847582216  0.154252855593743243 
ctilde_basis_func: rank=2 ndens=2 mu0=0 mu=( 0  0 )
n=( 1  1 )
l=( 2  2 )
num_ms=3
< 0  0 >:  -0.003022304154416225  -0.003316208396112399 
< 1  -1 >:  0.006044608308832451  0.006632416792224799 
< 2  -2 >:  -0.006044608308832453  -0.006632416792224801 
ctilde_basis_func: rank=2 ndens=2 mu0=0 mu=( 0  0 )
n=( 1  1 )
l=( 3  3 )
num_ms=4
< 0  0 >:  -0.000208648542560807  0.004266406839630361 
< 1  -1 >:  0.000417297085121613  -0.008532813679260723 
< 2  -2 >:  -0.000417297085121613  0.008532813679260721 
< 3  -3 >:  0.000417297085121613  -0.008532813679260721 
ctilde_basis_func: rank=2 ndens=2 mu0=0 mu=( 0  0 )
n=( 1  1 )
l=( 4  4 )
num_ms=5
< 0  0 >:  -0.000077169543561980  -0.001589374442916430 
< 1  -1 >:  0.000154339087123960  0.003178748885832859 
< 2  -2 >:  -0.000154339087123960  -0.003178748885832859 
< 3  -3 >:  0.000154339087123960  0.003178748885832859 
< 4  -4 >:  -0.000154339087123960  -0.003178748885832859 
ctilde_basis_func: rank=3 ndens=2 mu0=0 mu=( 0  0  0 )
n=( 1  1  1 )
l=( 0  0  0 )
num_ms=1
< 0  0  0 >:  0.000669185114818948  -0.014106948228527863 
ctilde_basis_func: rank=3 ndens=2 mu0=0 mu=( 0  0  0 )
n=( 1  1  1 )
l=( 1  1  0 )
num_ms=2
< 0  0  0 >:  0.000386499923253037  -0.006206288162866970 
< 1  -1  0 >:  -0.000772999846506075  0.012412576325733938 
ctilde_basis_func: rank=3 ndens=2 mu0=0 mu=( 0  0  0 )
n=( 1  1  1 )
l=( 1  1  2 )
num_ms=4
< -1  -1  2 >:  -0.000043725179045066  -0.012088137562699337 
< -1  0  1 >:  0.000061836741222725  0.017095208085001055 
< -1  1  0 >:  -0.000017850729595375  -0.004934961494864012 
< 0  0  0 >:  -0.000017850729595375  -0.004934961494864012 
ctilde_basis_func: rank=3 ndens=2 mu0=0 mu=( 0  0  0 )
n=( 1  1  1 )
l=( 2  2  0 )
num_ms=3
< 0  0  0 >:  0.000108428352574517  0.000187545183163119 
< 1  -1  0 >:  -0.000216856705149034  -0.000375090366326238 
< 2  -2  0 >:  0.000216856705149034  0.000375090366326238 
ctilde_basis_func: rank=3 ndens=2 mu0=0 mu=( 0  0  0 )
n=( 1  1  1 )
l=( 2  2  2 )
num_ms=5
< -2  0  2 >:  -0.000018859554229228  0.000203857640791438 
< -2  1  1 >:  0.000015398761545986  -0.000166449066702202 
< -1  -1  2 >:  0.000007699380772993  -0.000083224533351101 
< -1  0  1 >:  -0.000009429777114614  0.000101928820395719 
< 0  0  0 >:  0.000003143259038205  -0.000033976273465240 
ctilde_basis_func: rank=3 ndens=2 mu0=0 mu=( 0  0  0 )
n=( 1  1  1 )
l=( 2  3  3 )
num_ms=12
< -2  -1  3 >:  0.000028413075725955  -0.001115984780428290 
< -2  0  2 >:  -0.000080364314080757  0.003156481623767299 
< -2  1  1 >:  0.000044017347640461  -0.001728876187687884 
< -1  -2  3 >:  -0.000044925017312429  0.001764526870118148 
< -1  -1  2 >:  0.000034798768775824  -0.001366796636380617 
< -1  0  1 >:  -0.000025413427509233  0.000998167132357134 
< 0  -3  3 >:  0.000044925017312429  -0.001764526870118148 
< 0  -1  1 >:  -0.000026955010387458  0.001058716122070888 
< 0  0  0 >:  0.000017970006924972  -0.000705810748047259 
< 1  -3  2 >:  -0.000044925017312429  0.001764526870118148 
< 1  -2  1 >:  0.000034798768775824  -0.001366796636380617 
< 2  -3  1 >:  0.000028413075725955  -0.001115984780428290 
ctilde_basis_func: rank=3 ndens=2 mu0=0 mu=( 0  0  0 )
n=( 1  1  1 )
l=( 3  2  1 )
num_ms=8
< 0  0  0 >:  -0.000109549071313324  0.004041917849683876 
< 0  1  -1 >:  -0.000126496371624442  0.004667204717114676 
< 1  -2  1 >:  0.000073032714208883  -0.002694611899789250 
< 1  -1  0 >:  0.000206567709862240  -0.007621513388027779 
< 1  0  -1 >:  0.000178892884342274  -0.006600424209315260 
< 2  -2  0 >:  -0.000163306113552377  0.006025335380908615 
< 2  -1  -1 >:  -0.000230949720604212  0.008521111013527422 
< 3  -2  -1 >:  0.000282854485859329  -0.010436187012376094 
ctilde_basis_func: rank=3 ndens=2 mu0=0 mu=( 0  0  0 )
n=( 1  1  1 )
l=( 3  3  0 )
num_ms=4
< 0  0  0 >:  -0.000012389732609295  -0.000886337347999115 
< 1  -1  0 >:  0.000024779465218591  0.001772674695998230 
< 2  -2  0 >:  -0.000024779465218591  -0.001772674695998230 
< 3  -3  0 >:  0.000024779465218591  0.001772674695998230 
ctilde_basis_func: rank=4 ndens=2 mu0=0 mu=( 0  0  0  0 )
n=( 1  1  1  1 )
l=( 0  0  0  0 )
num_ms=1
< 0  0  0  0 >:  0.000000643545138478  0.000040552107238273 
ctilde_basis_func: rank=4 ndens=2 mu0=0 mu=( 0  0  0  0 )
n=( 1  1  1  1 )
l=( 1  1  0  0 )
num_ms=2
< 0  0  0  0 >:  -0.000002998776618311  -0.000057028247700802 
< 1  -1  0  0 >:  0.000005997553236622  0.000114056495401604 
ctilde_basis_func: rank=4 ndens=2 mu0=0 mu=( 0  0  0  0 )
n=( 1  1  1  1 )
l=( 1  1  1  1 )
num_ms=3
< -1  -1  1  1 >:  0.000002876961949128  -0.000134747501028761 
< -1  0  0  1 >:  -0.000002876961949128  0.000134747501028761 
< 0  0  0  0 >:  0.000000719240487282  -0.000033686875257190 
ctilde_basis_func: rank=5 ndens=2 mu0=0 mu=( 0  0  0  0  0 )
n=( 1  1  1  1  1 )
l=( 0  0  0  0  0 )
num_ms=1
< 0  0  0  0  0 >:  -0.000000001668338646  -0.000000600712456744 
ctilde_basis_func: rank=5 ndens=2 mu0=0 mu=( 0  0  0  0  0 )
n=( 1  1  1  1  1 )
l=( 0  1  1  1  1 )
num_ms=3
< 0  -1  -1  1  1 >:  0.000000043766807957  -0.000005652515025222 
< 0  -1  0  0  1 >:  -0.000000043766807957  0.000005652515025222 
< 0  0  0  0  0 >:  0.000000010941701989  -0.000001413128756305 
ctilde_basis_func: rank=5 ndens=2 mu0=0 mu=( 0  0  0  0  0 )
n=( 1  1  1  1  1 )
l=( 1  1  0  0  0 )
num_ms=2
< 0  0  0  0  0 >:  0.000000012630100765  0.000001814071223768 
< 1  -1  0  0  0 >:  -0.000000025260201530  -0.000003628142447536 
ctilde_basis_func: rank=3 ndens=2 mu0=0 mu=( 0  0  0 )
n=( 1  1  2 )
l=( 1  1  0 )
num_ms=2
< 0  0  0 >:  -0.000668035305851746  0.032810859687181504 
< 1  -1  0 >:  0.001336070611703493  -0.065621719374362994 
ctilde_basis_func: rank=3 ndens=2 mu0=0 mu=( 0  0  0 )
n=( 1  1  2 )
l=( 1  1  2 )
num_ms=4
< -1  -1  2 >:  -0.000805874445254076  0.029735383120814213 
< -1  0  1 >:  0.001139678570048209  -0.042052182091815472 
< -1  1  0 >:  -0.000328996864603490  0.012139419325360409 
< 0  0  0 >:  -0.000328996864603490  0.012139419325360411 
ctilde_basis_func: rank=3 ndens=2 mu0=0 mu=( 0  0  0 )
n=( 1  1  2 )
l=( 2  2  0 )
num_ms=3
< 0  0  0 >:  0.000186077401205004  0.001850739296688918 
< 1  -1  0 >:  -0.000372154802410008  -0.003701478593377836 
< 2  -2  0 >:  0.000372154802410008  0.003701478593377837 
ctilde_basis_func: rank=3 ndens=2 mu0=0 mu=( 0  0  0 )
n=( 1  1  2 )
l=( 2  2  2 )
num_ms=7
< -2  0  2 >:  0.000191595278057115  -0.006897757250572417 
< -2  1  1 >:  -0.000234655334183297  0.008447992816742717 
< -2  2  0 >:  0.000095797639028557  -0.003448878625286210 
< -1  -1  2 >:  -0.000117327667091648  0.004223996408371358 
< -1  0  1 >:  0.000095797639028557  -0.003448878625286208 
< -1  1  0 >:  0.000047898819514279  -0.001724439312643104 
< 0  0  0 >:  -0.000047898819514279  0.001724439312643104 
ctilde_basis_func: rank=3 ndens=2 mu0=0 mu=( 0  0  0 )
n=( 1  1  2 )
l=( 2  3  3 )
num_ms=14
< -2  -1  3 >:  0.000079180486039035  -0.004522772823021100 
< -2  0  2 >:  -0.000111978117231697  0.006396166665848892 
< -2  1  1 >:  0.000122665881509517  -0.007006649528896092 
< -2  2  0 >:  -0.000111978117231697  0.006396166665848892 
< -1  -2  3 >:  -0.000125195341061258  0.007151131730128149 
< -1  -1  2 >:  0.000096975894190602  -0.005539242819464352 
< -1  0  1 >:  -0.000035410589854951  0.002022645495812762 
< -1  1  0 >:  -0.000035410589854951  0.002022645495812762 
< 0  -3  3 >:  0.000125195341061258  -0.007151131730128148 
< 0  -1  1 >:  -0.000075117204636755  0.004290679038076887 
< 0  0  0 >:  0.000050078136424503  -0.002860452692051259 
< 1  -3  2 >:  -0.000125195341061258  0.007151131730128149 
< 1  -2  1 >:  0.000096975894190602  -0.005539242819464352 
< 2  -3  1 >:  0.000079180486039035  -0.004522772823021100 
ctilde_basis_func: rank=3 ndens=2 mu0=0 mu=( 0  0  0 )
n=( 1  1  2 )
l=( 3  2  1 )
num_ms=8
< 0  0  0 >:  -0.000058907395494137  0.002485979103299829 
< 0  1  -1 >:  -0.000068020401291600  0.002870561408979880 
< 1  -2  1 >:  0.000039271596996091  -0.001657319402199885 
< 1  -1  0 >:  0.000111076850175846  -0.004687607151550298 
< 1  0  -1 >:  0.000096195374024641  -0.004059586876204168 
< 2  -2  0 >:  -0.000087813960468237  0.003705878843748259 
< 2  -1  -1 >:  -0.000124187693859876  0.005240904121340311 
< 3  -2  -1 >:  0.000152098241144832  -0.006418770444066589 
ctilde_basis_func: rank=3 ndens=2 mu0=0 mu=( 0  0  0 )
n=( 1  1  2 )
l=( 3  3  0 )
num_ms=4
< 0  0  0 >:  0.000021020616490653  0.000961488527771509 
< 1  -1  0 >:  -0.000042041232981307  -0.001922977055543018 
< 2  -2  0 >:  0.000042041232981307  0.001922977055543017 
< 3  -3  0 >:  -0.000042041232981307  -0.001922977055543017 
ctilde_basis_func: rank=3 ndens=2 mu0=0 mu=( 0  0  0 )
n=( 1  1  2 )
l=( 3  3  2 )
num_ms=12
< -3  1  2 >:  0.000008463896744308  0.000276611183339975 
< -3  2  1 >:  -0.000013382595796249  -0.000437360682814372 
< -3  3  0 >:  0.000013382595796249  0.000437360682814372 
< -2  1  1 >:  0.000010366114129579  0.000338778128165193 
< -2  3  -1 >:  -0.000013382595796249  -0.000437360682814372 
< -1  1  0 >:  -0.000008029557477749  -0.000262416409688623 
< -1  2  -1 >:  0.000010366114129579  0.000338778128165193 
< -1  3  -2 >:  0.000008463896744308  0.000276611183339975 
< 0  0  0 >:  0.000005353038318500  0.000174944273125749 
< 0  1  -1 >:  -0.000007570339389925  -0.000247408563713937 
< 0  2  -2 >:  -0.000023939515132652  -0.000782374573966928 
< 1  1  -2 >:  0.000013112212453890  0.000428524202580181 
ctilde_basis_func: rank=3 ndens=2 mu0=0 mu=( 0  0  0 )
n=( 1  1  3 )
l=( 1  1  0 )
num_ms=2
< 0  0  0 >:  -0.000129224062898153  0.014470869898412805 
< 1  -1  0 >:  0.000258448125796306  -0.028941739796825607 
ctilde_basis_func: rank=3 ndens=2 mu0=0 mu=( 0  0  0 )
n=( 1  1  3 )
l=( 1  1  2 )
num_ms=4
< -1  -1  2 >:  -0.000391165026711019  -0.008178441165739752 
< -1  0  1 >:  0.000553190885900757  0.011566062415659583 
< -1  1  0 >:  -0.000159692453444025  -0.003338834624572536 
< 0  0  0 >:  -0.000159692453444025  -0.003338834624572537 
ctilde_basis_func: rank=3 ndens=2 mu0=0 mu=( 0  0  0 )
n=( 1  1  3 )
l=( 2  2  0 )
num_ms=3
< 0  0  0 >:  -0.000144715220476839  0.001837262724306576 
< 1  -1  0 >:  0.000289430440953679  -0.003674525448613153 
< 2  -2  0 >:  -0.000289430440953679  0.003674525448613154 
ctilde_basis_func: rank=3 ndens=2 mu0=0 mu=( 0  0  0 )
n=( 1  1  3 )
l=( 2  2  2 )
num_ms=7
< -2  0  2 >:  0.000035663544568041  -0.004596053296325214 
< -2  1  1 >:  -0.000043678743305353  0.005628992703316714 
< -2  2  0 >:  0.000017831772284020  -0.002298026648162608 
< -1  -1  2 >:  -0.000021839371652677  0.002814496351658357 
< -1  0  1 >:  0.000017831772284020  -0.002298026648162607 
< -1  1  0 >:  0.000008915886142010  -0.001149013324081303 
< 0  0  0 >:  -0.000008915886142010  0.001149013324081303 
ctilde_basis_func: rank=3 ndens=2 mu0=0 mu=( 0  0  0 )
n=( 1  1  3 )
l=( 2  3  3 )
num_ms=14
< -2  -1  3 >:  0.000225941829393237  -0.007395092751265179 
< -2  0  2 >:  -0.000319529999435304  0.010458240463846184 
< -2  1  1 >:  0.000350027576980658  -0.011456428427723693 
< -2  2  0 >:  -0.000319529999435304  0.010458240463846184 
< -1  -2  3 >:  -0.000357245399793905  0.011692668301099494 
< -1  -1  2 >:  0.000276721096782201  -0.009057101920577145 
< -1  0  1 >:  -0.000101044257896788  0.003307186018348977 
< -1  1  0 >:  -0.000101044257896788  0.003307186018348977 
< 0  -3  3 >:  0.000357245399793905  -0.011692668301099492 
< 0  -1  1 >:  -0.000214347239876343  0.007015600980659694 
< 0  0  0 >:  0.000142898159917562  -0.004677067320439797 
< 1  -3  2 >:  -0.000357245399793905  0.011692668301099494 
< 1  -2  1 >:  0.000276721096782201  -0.009057101920577145 
< 2  -3  1 >:  0.000225941829393237  -0.007395092751265179 
ctilde_basis_func: rank=3 ndens=2 mu0=0 mu=( 0  0  0 )
n=( 1  1  3 )
l=( 3  2  1 )
num_ms=8
< 0  0  0 >:  0.000908483262433621  -0.028853562439948053 
< 0  1  -1 >:  0.001049026112240641  -0.033317224083567354 
< 1  -2  1 >:  -0.000605655508289081  0.019235708293298695 
< 1  -1  0 >:  -0.001713052467896777  0.054406799100471290 
< 1  0  -1 >:  -0.001483546955214235  0.047117670159604462 
< 2  -2  0 >:  0.001354286887481572  -0.043012351339172354 
< 2  -1  -1 >:  0.001915250883620485  -0.060828650613414095 
< 3  -2  -1 >:  -0.002345693697142397  0.074499577872449749 
ctilde_basis_func: rank=3 ndens=2 mu0=0 mu=( 0  0  0 )
n=( 1  1  3 )
l=( 3  3  0 )
num_ms=4
< 0  0  0 >:  0.000008353004275544  0.001088480841370221 
< 1  -1  0 >:  -0.000016706008551088  -0.002176961682740442 
< 2  -2  0 >:  0.000016706008551088  0.002176961682740442 
< 3  -3  0 >:  -0.000016706008551088  -0.002176961682740442 
ctilde_basis_func: rank=3 ndens=2 mu0=0 mu=( 0  0  0 )
n=( 1  1  3 )
l=( 3  3  2 )
num_ms=12
< -3  1  2 >:  0.000080234335533470  -0.005619668467756014 
< -3  2  1 >:  -0.000126861623417974  0.008885476026568752 
< -3  3  0 >:  0.000126861623417974  -0.008885476026568752 
< -2  1  1 >:  0.000098266590954130  -0.006882660134805208 
< -2  3  -1 >:  -0.000126861623417974  0.008885476026568752 
< -1  1  0 >:  -0.000076116974050784  0.005331285615941250 
< -1  2  -1 >:  0.000098266590954130  -0.006882660134805208 
< -1  3  -2 >:  0.000080234335533470  -0.005619668467756014 
< 0  0  0 >:  0.000050744649367189  -0.003554190410627501 
< 0  1  -1 >:  -0.000071763771352947  0.005026384281965814 
< 0  2  -2 >:  -0.000226936970958855  0.015894822726281975 
< 1  1  -2 >:  0.000124298498126059  -0.008705952954730400 
ctilde_basis_func: rank=3 ndens=2 mu0=0 mu=( 0  0  0 )
n=( 1  2  1 )
l=( 2  1  1 )
num_ms=5
< 0  0  0 >:  0.000011277385062845  -0.002812955401682480 
< 0  1  -1 >:  0.000011277385062845  -0.002812955401682480 
< 1  -1  0 >:  -0.000019533003905366  0.004872181675139376 
< 1  0  -1 >:  -0.000019533003905366  0.004872181675139376 
< 2  -1  -1 >:  0.000027623839036855  -0.006890305403327771 
ctilde_basis_func: rank=3 ndens=2 mu0=0 mu=( 0  0  0 )
n=( 1  2  1 )
l=( 3  2  1 )
num_ms=8
< 0  0  0 >:  0.000046880801646902  -0.004022710113557445 
< 0  1  -1 >:  0.000054133286901329  -0.004645025533868440 
< 1  -2  1 >:  -0.000031253867764601  0.002681806742371629 
< 1  -1  0 >:  -0.000088399287338629  0.007585294933451136 
< 1  0  -1 >:  -0.000076556028511693  0.006569058107566074 
< 2  -2  0 >:  0.000069885772881438  -0.005996702178460230 
< 2  -1  -1 >:  0.000098833407825856  -0.008480617550290741 
< 3  -2  -1 >:  -0.000121045709356870  0.010386592850952085 
ctilde_basis_func: rank=3 ndens=2 mu0=0 mu=( 0  0  0 )
n=( 1  2  2 )
l=( 2  1  1 )
num_ms=4
< 0  -1  1 >:  0.000052724959477270  -0.001245805388392997 
< 0  0  0 >:  0.000052724959477270  -0.001245805388392997 
< 1  -1  0 >:  -0.000182644617283285  0.004315596458079498 
< 2  -1  -1 >:  0.000129149247428232  -0.003051587520372659 
ctilde_basis_func: rank=3 ndens=2 mu0=0 mu=( 0  0  0 )
n=( 1  2  2 )
l=( 2  2  2 )
num_ms=8
< -2  0  2 >:  -0.000468119088260758  0.011200852468433702 
< -2  1  1 >:  0.000286663226273935  -0.006859093307963996 
< -1  -1  2 >:  0.000286663226273935  -0.006859093307963996 
< -1  0  1 >:  -0.000234059544130379  0.005600426234216848 
< 0  -2  2 >:  -0.000234059544130379  0.005600426234216848 
< 0  -1  1 >:  -0.000117029772065189  0.002800213117108424 
< 0  0  0 >:  0.000117029772065189  -0.002800213117108424 
< 1  -2  1 >:  0.000286663226273935  -0.006859093307963996 
ctilde_basis_func: rank=3 ndens=2 mu0=0 mu=( 0  0  0 )
n=( 1  2  2 )
l=( 2  3  3 )
num_ms=12
< -2  -1  3 >:  0.000013140732952540  -0.002987098708215222 
< -2  0  2 >:  -0.000037167605522011  0.008448791010610242 
< -2  1  1 >:  0.000020357535952859  -0.004627593420158099 
< -1  -2  3 >:  -0.000020777323127028  0.004723017756853410 
< -1  -1  2 >:  0.000016094045289950  -0.003658433823227035 
< -1  0  1 >:  -0.000011753428862421  0.002671742306828419 
< 0  -3  3 >:  0.000020777323127028  -0.004723017756853409 
< 0  -1  1 >:  -0.000012466393876217  0.002833810654112045 
< 0  0  0 >:  0.000008310929250811  -0.001889207102741364 
< 1  -3  2 >:  -0.000020777323127028  0.004723017756853410 
< 1  -2  1 >:  0.000016094045289950  -0.003658433823227035 
< 2  -3  1 >:  0.000013140732952540  -0.002987098708215222 
ctilde_basis_func: rank=3 ndens=2 mu0=0 mu=( 0  0  0 )
n=( 1  2  2 )
l=( 3  2  1 )
num_ms=8
< 0  0  0 >:  0.000032307148364393  -0.002450065655341535 
< 0  1  -1 >:  0.000037305081609863  -0.002829092131287383 
< 1  -2  1 >:  -0.000021538098909595  0.001633377103561023 
< 1  -1  0 >:  -0.000060918943171365  0.004619888104651365 
< 1  0  -1 >:  -0.000052757352358103  0.004000940461269622 
< 2  -2  0 >:  0.000048160653267969  -0.003652342236454162 
< 2  -1  -1 >:  0.000068109449024310  -0.005165191925221556 
< 3  -2  -1 >:  -0.000083416698385830  0.006326042320168349 
ctilde_basis_func: rank=3 ndens=2 mu0=0 mu=( 0  0  0 )
n=( 1  2  2 )
l=( 3  2  3 )
num_ms=14
< -3  0  3 >:  -0.000031639511073850  0.000306261569605600 
< -3  1  2 >:  0.000031639511073850  -0.000306261569605600 
< -3  2  1 >:  -0.000020010583809497  0.000193696823946378 
< -2  -1  3 >:  0.000031639511073850  -0.000306261569605600 
< -2  1  1 >:  -0.000024507859894234  0.000237229191733166 
< -1  -2  3 >:  -0.000020010583809497  0.000193696823946378 
< -1  -1  2 >:  -0.000024507859894234  0.000237229191733166 
< -1  0  1 >:  0.000018983706644310  -0.000183756941763360 
< 0  -2  2 >:  0.000028299239014395  -0.000273928675413562 
< 0  -1  1 >:  0.000008949005133499  -0.000086623853073982 
< 0  0  0 >:  -0.000012655804429540  0.000122504627842240 
< 1  -2  1 >:  -0.000031000263136829  0.000300073829343037 
< 1  -1  0 >:  0.000008949005133499  -0.000086623853073982 
< 2  -2  0 >:  0.000028299239014395  -0.000273928675413562 
ctilde_basis_func: rank=3 ndens=2 mu0=0 mu=( 0  0  0 )
n=( 1  2  3 )
l=( 2  3  3 )
num_ms=14
< -2  -1  3 >:  0.000084106732387868  0.001162553993014469 
< -2  0  2 >:  -0.000118944881629807  -0.001644099623912060 
< -2  1  1 >:  0.000130297589536855  0.001801020901604790 
< -2  2  0 >:  -0.000118944881629807  -0.001644099623912060 
< -1  -2  3 >:  -0.000132984420449958  -0.001838159260424601 
< -1  -1  2 >:  0.000103009289141546  0.001423832040660285 
< -1  0  1 >:  -0.000037613674196931  -0.000519909951178834 
< -1  1  0 >:  -0.000037613674196931  -0.000519909951178834 
< 0  -3  3 >:  0.000132984420449958  0.001838159260424601 
< 0  -1  1 >:  -0.000079790652269975  -0.001102895556254760 
< 0  0  0 >:  0.000053193768179983  0.000735263704169840 
< 1  -3  2 >:  -0.000132984420449958  -0.001838159260424601 
< 1  -2  1 >:  0.000103009289141546  0.001423832040660285 
< 2  -3  1 >:  0.000084106732387868  0.001162553993014469 
ctilde_basis_func: rank=3 ndens=2 mu0=0 mu=( 0  0  0 )
n=( 1  2  3 )
l=( 3  2  1 )
num_ms=8
< 0  0  0 >:  -0.000543176499046985  0.035929346113627816 
< 0  1  -1 >:  -0.000627206195884511  0.041487635301020488 
< 1  -2  1 >:  0.000362117666031323  -0.023952897409085201 
< 1  -1  0 >:  0.001024223428952778  -0.067749024748119335 
< 1  0  -1 >:  0.000887003508624311  -0.058672376513491956 
< 2  -2  0 >:  -0.000809719717099606  0.053560306864793107 
< 2  -1  -1 >:  -0.001145116605643168  0.075745712373055191 
< 3  -2  -1 >:  0.001402475689906815  -0.092769172758801768 
ctilde_basis_func: rank=3 ndens=2 mu0=0 mu=( 0  0  0 )
n=( 1  2  3 )
l=( 3  2  3 )
num_ms=14
< -3  0  3 >:  0.000519794255381279  -0.003429639840328332 
< -3  1  2 >:  -0.000519794255381279  0.003429639840328333 
< -3  2  1 >:  0.000328746752335215  -0.002169094689898747 
< -2  -1  3 >:  -0.000519794255381279  0.003429639840328333 
< -2  1  1 >:  0.000402630898909196  -0.002656587597016220 
< -1  -2  3 >:  0.000328746752335215  -0.002169094689898747 
< -1  -1  2 >:  0.000402630898909196  -0.002656587597016220 
< -1  0  1 >:  -0.000311876553228767  0.002057783904196999 
< 0  -2  2 >:  -0.000464918115738571  0.003067563128526273 
< 0  -1  1 >:  -0.000147020017120766  0.000970048635249485 
< 0  0  0 >:  0.000207917702152512  -0.001371855936131333 
< 1  -2  1 >:  0.000509292278765626  -0.003360347044129917 
< 1  -1  0 >:  -0.000147020017120766  0.000970048635249485 
< 2  -2  0 >:  -0.000464918115738571  0.003067563128526273 
ctilde_basis_func: rank=3 ndens=2 mu0=0 mu=( 0  0  0 )
n=( 1  2  3 )
l=( 3  3  2 )
num_ms=14
< -3  1  2 >:  0.000657217398852276  -0.028635056224366445 
< -3  2  1 >:  -0.001039151949132262  0.045275999297989741 
< -3  3  0 >:  0.001039151949132262  -0.045275999297989741 
< -2  1  1 >:  0.000804923638633646  -0.035070638252802606 
< -2  3  -1 >:  -0.001039151949132262  0.045275999297989741 
< -1  1  0 >:  -0.000623491169479357  0.027165599578793838 
< -1  2  -1 >:  0.000804923638633646  -0.035070638252802606 
< -1  3  -2 >:  0.000657217398852276  -0.028635056224366445 
< 0  0  0 >:  0.000415660779652905  -0.018110399719195897 
< 0  1  -1 >:  -0.000293916555965856  0.012805986451442370 
< 0  2  -2 >:  -0.000929445758884457  0.040496084871815149 
< 1  0  -1 >:  -0.000293916555965856  0.012805986451442370 
< 1  1  -2 >:  0.001018156816237050  -0.044361238349873718 
< 2  0  -2 >:  -0.000929445758884457  0.040496084871815149 
ctilde_basis_func: rank=3 ndens=2 mu0=0 mu=( 0  0  0 )
n=( 1  3  1 )
l=( 2  1  1 )
num_ms=5
< 0  0  0 >:  0.001787901378297109  0.020849158496145562 
< 0  1  -1 >:  0.001787901378297109  0.020849158496145558 
< 1  -1  0 >:  -0.003096736026133017  -0.036111801810380442 
< 1  0  -1 >:  -0.003096736026133017  -0.036111801810380442 
< 2  -1  -1 >:  0.004379446087246676  0.051069799881969302 
ctilde_basis_func: rank=3 ndens=2 mu0=0 mu=( 0  0  0 )
n=( 1  3  1 )
l=( 3  2  1 )
num_ms=8
< 0  0  0 >:  -0.000757440507957835  0.028956114507130690 
< 0  1  -1 >:  -0.000874616962329165  0.033435641010755052 
< 1  -2  1 >:  0.000504960338638556  -0.019304076338087121 
< 1  -1  0 >:  0.001428243518726315  -0.054600173132816732 
< 1  0  -1 >:  0.001236895170007464  -0.047285136984047849 
< 2  -2  0 >:  -0.001129125643137126  0.043165226934808024 
< 2  -1  -1 >:  -0.001596824798147767  0.061044849354117921 
< 3  -2  -1 >:  0.001955702982042387  -0.074764366171328075 
ctilde_basis_func: rank=3 ndens=2 mu0=0 mu=( 0  0  0 )
n=( 1  3  2 )
l=( 2  1  1 )
num_ms=5
< 0  0  0 >:  0.000179939479527376  0.019282651831076018 
< 0  1  -1 >:  0.000179939479527376  0.019282651831076015 
< 1  -1  0 >:  -0.000311664320828915  -0.033398532676084711 
< 1  0  -1 >:  -0.000311664320828915  -0.033398532676084711 
< 2  -1  -1 >:  0.000440759909424052  0.047232657873879973 
ctilde_basis_func: rank=3 ndens=2 mu0=0 mu=( 0  0  0 )
n=( 1  3  2 )
l=( 3  2  1 )
num_ms=8
< 0  0  0 >:  -0.000374854083836467  0.018068985392433116 
< 0  1  -1 >:  -0.000432844212419630  0.020864267160609341 
< 1  -2  1 >:  0.000249902722557645  -0.012045990261622072 
< 1  -1  0 >:  0.000706831639029964  -0.034071205600400341 
< 1  0  -1 >:  0.000612134155598541  -0.029506529587509319 
< 2  -2  0 >:  -0.000558799475401164  0.026935653081287439 
< 2  -1  -1 >:  -0.000790261796759297  0.038092765898933338 
< 3  -2  -1 >:  0.000967869082637651  -0.046653919671839017 
ctilde_basis_func: rank=3 ndens=2 mu0=0 mu=( 0  0  0 )
n=( 1  3  3 )
l=( 2  1  1 )
num_ms=4
< 0  -1  1 >:  -0.016695255648240710  -0.100674041304111103 
< 0  0  0 >:  -0.016695255648240714  -0.100674041304111117 
< 1  -1  0 >:  0.057834062056208384  0.348745109084016347 
< 2  -1  -1 >:  -0.040894857463508544  -0.246600031538950160 
ctilde_basis_func: rank=3 ndens=2 mu0=0 mu=( 0  0  0 )
n=( 1  3  3 )
l=( 2  2  2 )
num_ms=8
< -2  0  2 >:  -0.000235828718461456  -0.027940184202825302 
< -2  1  1 >:  0.000144415006731259  0.017109798654073284 
< -1  -1  2 >:  0.000144415006731259  0.017109798654073284 
< -1  0  1 >:  -0.000117914359230728  -0.013970092101412642 
< 0  -2  2 >:  -0.000117914359230728  -0.013970092101412642 
< 0  -1  1 >:  -0.000058957179615364  -0.006985046050706321 
< 0  0  0 >:  0.000058957179615364  0.006985046050706321 
< 1  -2  1 >:  0.000144415006731259  0.017109798654073284 
ctilde_basis_func: rank=3 ndens=2 mu0=0 mu=( 0  0  0 )
n=( 1  3  3 )
l=( 2  3  3 )
num_ms=12
< -2  -1  3 >:  0.000377459687254213  0.000244700820307280 
< -2  0  2 >:  -0.001067617217928029  -0.000692118437604755 
< -2  1  1 >:  0.000584758033040090  0.000379088880741356 
< -1  -2  3 >:  -0.000596816168309070  -0.000386905968741294 
< -1  -1  2 >:  0.000462291816121670  0.000299696074696656 
< -1  0  1 >:  -0.000337610207786492  -0.000218867067342816 
< 0  -3  3 >:  0.000596816168309070  0.000386905968741294 
< 0  -1  1 >:  -0.000358089700985442  -0.000232143581244777 
< 0  0  0 >:  0.000238726467323628  0.000154762387496518 
< 1  -3  2 >:  -0.000596816168309070  -0.000386905968741294 
< 1  -2  1 >:  0.000462291816121670  0.000299696074696656 
< 2  -3  1 >:  0.000377459687254213  0.000244700820307280 
ctilde_basis_func: rank=3 ndens=2 mu0=0 mu=( 0  0  0 )
n=( 1  3  3 )
l=( 3  2  1 )
num_ms=8
< 0  0  0 >:  0.006121741426607759  -0.278623292738430395 
< 0  1  -1 >:  0.007068778121122543  -0.321726466130065225 
< 1  -2  1 >:  -0.004081160951071837  0.185748861825620198 
< 1  -1  0 >:  -0.011543266334466548  0.525377119178316421 
< 1  0  -1 >:  -0.009996761888297704  0.454989931775506506 
< 2  -2  0 >:  0.009125753313714324  -0.415347081785302552 
< 2  -1  -1 >:  0.012905764103126010  -0.587389476152861967 
< 3  -2  -1 >:  -0.015806268396693249  0.719402248427609692 
ctilde_basis_func: rank=3 ndens=2 mu0=0 mu=( 0  0  0 )
n=( 1  3  3 )
l=( 3  2  3 )
num_ms=14
< -3  0  3 >:  0.001562937823738298  -0.102503488131116829 
< -3  1  2 >:  -0.001562937823738298  0.102503488131116829 
< -3  2  1 >:  0.000988488672847961  -0.064828898121273085 
< -2  -1  3 >:  -0.001562937823738298  0.102503488131116829 
< -2  1  1 >:  0.001210646432499219  -0.079398860491997056 
< -1  -2  3 >:  0.000988488672847961  -0.064828898121273085 
< -1  -1  2 >:  0.001210646432499219  -0.079398860491997056 
< -1  0  1 >:  -0.000937762694242978  0.061502092878670082 
< 0  -2  2 >:  -0.001397934087393768  0.091681906956808099 
< 0  -1  1 >:  -0.000442065573495318  0.028992364621115013 
< 0  0  0 >:  0.000625175129495319  -0.041001395252446733 
< 1  -2  1 >:  0.001531360067141930  -0.100432497110667207 
< 1  -1  0 >:  -0.000442065573495318  0.028992364621115013 
< 2  -2  0 >:  -0.001397934087393768  0.091681906956808099 
ctilde_basis_func: rank=2 ndens=2 mu0=0 mu=( 0  0 )
n=( 2  1 )
l=( 0  0 )
num_ms=1
< 0  0 >:  0.016551527442829738  -0.766098794514091908 
ctilde_basis_func: rank=2 ndens=2 mu0=0 mu=( 0  0 )
n=( 2  1 )
l=( 1  1 )
num_ms=2
< 0  0 >:  -0.007046057619482981  -0.001676595534634451 
< 1  -1 >:  0.014092115238965959  0.003353191069268902 
ctilde_basis_func: rank=2 ndens=2 mu0=0 mu=( 0  0 )
n=( 2  1 )
l=( 2  2 )
num_ms=3
< 0  0 >:  0.020513404377373416  -0.007470956008914947 
< 1  -1 >:  -0.041026808754746839  0.014941912017829895 
< 2  -2 >:  0.041026808754746846  -0.014941912017829901 
ctilde_basis_func: rank=2 ndens=2 mu0=0 mu=( 0  0 )
n=( 2  1 )
l=( 3  3 )
num_ms=4
< 0  0 >:  0.006601195026521499  0.005398999459373508 
< 1  -1 >:  -0.013202390053042998  -0.010797998918747016 
< 2  -2 >:  0.013202390053042997  0.010797998918747014 
< 3  -3 >:  -0.013202390053042997  -0.010797998918747014 
ctilde_basis_func: rank=2 ndens=2 mu0=0 mu=( 0  0 )
n=( 2  1 )
l=( 4  4 )
num_ms=5
< 0  0 >:  -0.000002496072231184  0.000077813918320361 
< 1  -1 >:  0.000004992144462368  -0.000155627836640721 
< 2  -2 >:  -0.000004992144462368  0.000155627836640721 
< 3  -3 >:  0.000004992144462368  -0.000155627836640721 
< 4  -4 >:  -0.000004992144462368  0.000155627836640721 
ctilde_basis_func: rank=3 ndens=2 mu0=0 mu=( 0  0  0 )
n=( 2  1  1 )
l=( 0  0  0 )
num_ms=1
< 0  0  0 >:  -0.000168143311109622  -0.000792926944514963 
ctilde_basis_func: rank=3 ndens=2 mu0=0 mu=( 0  0  0 )
n=( 2  1  1 )
l=( 1  1  0 )
num_ms=2
< 0  0  0 >:  0.000355119644612195  -0.009761249455770664 
< 1  -1  0 >:  -0.000710239289224390  0.019522498911541324 
ctilde_basis_func: rank=3 ndens=2 mu0=0 mu=( 0  0  0 )
n=( 2  1  1 )
l=( 2  2  0 )
num_ms=3
< 0  0  0 >:  -0.000628508811151751  -0.002202172486546780 
< 1  -1  0 >:  0.001257017622303503  0.004404344973093560 
< 2  -2  0 >:  -0.001257017622303503  -0.004404344973093561 
ctilde_basis_func: rank=3 ndens=2 mu0=0 mu=( 0  0  0 )
n=( 2  1  1 )
l=( 3  2  1 )
num_ms=8
< 0  0  0 >:  0.000157874241005506  -0.006364689832350282 
< 0  1  -1 >:  0.000182297471085274  -0.007349310776031816 
< 1  -2  1 >:  -0.000105249494003671  0.004243126554900186 
< 1  -1  0 >:  -0.000297690523705794  0.012001374241610546 
< 1  0  -1 >:  -0.000257807555995111  0.010393494973558931 
< 2  -2  0 >:  0.000235345023189664  -0.009487919413891313 
< 2  -1  -1 >:  0.000332828123631834  -0.013417944313828081 
< 3  -2  -1 >:  -0.000407629537472974  0.016433558482978877 
ctilde_basis_func: rank=3 ndens=2 mu0=0 mu=( 0  0  0 )
n=( 2  1  1 )
l=( 3  3  0 )
num_ms=4
< 0  0  0 >:  -0.000052328788200802  -0.005582244178479951 
< 1  -1  0 >:  0.000104657576401603  0.011164488356959901 
< 2  -2  0 >:  -0.000104657576401603  -0.011164488356959899 
< 3  -3  0 >:  0.000104657576401603  0.011164488356959899 
ctilde_basis_func: rank=3 ndens=2 mu0=0 mu=( 0  0  0 )
n=( 2  1  2 )
l=( 1  1  0 )
num_ms=2
< 0  0  0 >:  -0.000531933407915553  0.020019460160632340 
< 1  -1  0 >:  0.001063866815831106  -0.040038920321264673 
ctilde_basis_func: rank=3 ndens=2 mu0=0 mu=( 0  0  0 )
n=( 2  1  2 )
l=( 2  2  0 )
num_ms=3
< 0  0  0 >:  -0.000397590814198879  -0.037384727165355243 
< 1  -1  0 >:  0.000795181628397759  0.074769454330710500 
< 2  -2  0 >:  -0.000795181628397759  -0.074769454330710527 
ctilde_basis_func: rank=3 ndens=2 mu0=0 mu=( 0  0  0 )
n=( 2  1  2 )
l=( 3  2  1 )
num_ms=8
< 0  0  0 >:  0.000086543307369928  -0.001186412179524409 
< 0  1  -1 >:  0.000099931603613177  -0.001369950782436536 
< 1  -2  1 >:  -0.000057695538246619  0.000790941453016273 
< 1  -1  0 >:  -0.000163187625353568  0.002237120259797391 
< 1  0  -1 >:  -0.000141324629139448  0.001937402976305383 
< 2  -2  0 >:  0.000129011145517879  -0.001768598855166842 
< 2  -1  -1 >:  0.000182449311688673  -0.002501176487374478 
< 3  -2  -1 >:  -0.000223453858779628  0.003063303075357121 
ctilde_basis_func: rank=3 ndens=2 mu0=0 mu=( 0  0  0 )
n=( 2  1  2 )
l=( 3  3  0 )
num_ms=4
< 0  0  0 >:  -0.000118577779514015  -0.015061573529213482 
< 1  -1  0 >:  0.000237155559028030  0.030123147058426964 
< 2  -2  0 >:  -0.000237155559028030  -0.030123147058426957 
< 3  -3  0 >:  0.000237155559028030  0.030123147058426957 
ctilde_basis_func: rank=3 ndens=2 mu0=0 mu=( 0  0  0 )
n=( 2  1  3 )
l=( 1  1  0 )
num_ms=2
< 0  0  0 >:  -0.000196472013568471  0.020077796621583675 
< 1  -1  0 >:  0.000392944027136943  -0.040155593243167344 
ctilde_basis_func: rank=3 ndens=2 mu0=0 mu=( 0  0  0 )
n=( 2  1  3 )
l=( 2  2  0 )
num_ms=3
< 0  0  0 >:  0.000788898623456380  -0.014246585160358339 
< 1  -1  0 >:  -0.001577797246912760  0.028493170320716681 
< 2  -2  0 >:  0.001577797246912761  -0.028493170320716688 
ctilde_basis_func: rank=3 ndens=2 mu0=0 mu=( 0  0  0 )
n=( 2  1  3 )
l=( 3  2  1 )
num_ms=8
< 0  0  0 >:  -0.001570197015810449  -0.011270884251050967 
< 0  1  -1 >:  -0.001813107339517818  -0.013014496112698773 
< 1  -2  1 >:  0.001046798010540299  0.007513922834033975 
< 1  -1  0 >:  0.002960791887142530  0.021252583157031466 
< 1  0  -1 >:  0.002564120989584299  0.018405276910030528 
< 2  -2  0 >:  -0.002340711510279650  -0.016801642234587844 
< 2  -1  -1 >:  -0.003310265963440291  -0.023761110318294719 
< 3  -2  -1 >:  0.004054231261665634  0.029101298000901225 
ctilde_basis_func: rank=3 ndens=2 mu0=0 mu=( 0  0  0 )
n=( 2  1  3 )
l=( 3  3  0 )
num_ms=4
< 0  0  0 >:  0.000110352167524367  -0.003355234990285476 
< 1  -1  0 >:  -0.000220704335048734  0.006710469980570952 
< 2  -2  0 >:  0.000220704335048734  -0.006710469980570951 
< 3  -3  0 >:  -0.000220704335048734  0.006710469980570951 
ctilde_basis_func: rank=2 ndens=2 mu0=0 mu=( 0  0 )
n=( 2  2 )
l=( 0  0 )
num_ms=1
< 0  0 >:  0.039655612285869508  -2.033170379744765555 
ctilde_basis_func: rank=2 ndens=2 mu0=0 mu=( 0  0 )
n=( 2  2 )
l=( 1  1 )
num_ms=2
< 0  0 >:  -0.002996812817662628  0.012320716409314522 
< 1  -1 >:  0.005993625635325256  -0.024641432818629041 
ctilde_basis_func: rank=2 ndens=2 mu0=0 mu=( 0  0 )
n=( 2  2 )
l=( 2  2 )
num_ms=3
< 0  0 >:  -0.018403483241144606  0.004311167599633926 
< 1  -1 >:  0.036806966482289212  -0.008622335199267852 
< 2  -2 >:  -0.036806966482289226  0.008622335199267856 
ctilde_basis_func: rank=2 ndens=2 mu0=0 mu=( 0  0 )
n=( 2  2 )
l=( 3  3 )
num_ms=4
< 0  0 >:  0.006980808214579934  -0.024332650634744397 
< 1  -1 >:  -0.013961616429159869  0.048665301269488793 
< 2  -2 >:  0.013961616429159867  -0.048665301269488787 
< 3  -3 >:  -0.013961616429159867  0.048665301269488787 
ctilde_basis_func: rank=2 ndens=2 mu0=0 mu=( 0  0 )
n=( 2  2 )
l=( 4  4 )
num_ms=5
< 0  0 >:  0.000001757839581250  0.000784911359194081 
< 1  -1 >:  -0.000003515679162500  -0.001569822718388162 
< 2  -2 >:  0.000003515679162500  0.001569822718388162 
< 3  -3 >:  -0.000003515679162500  -0.001569822718388162 
< 4  -4 >:  0.000003515679162500  0.001569822718388162 
ctilde_basis_func: rank=3 ndens=2 mu0=0 mu=( 0  0  0 )
n=( 2  2  1 )
l=( 0  0  0 )
num_ms=1
< 0  0  0 >:  -0.000079366318751820  -0.053763718299266558 
ctilde_basis_func: rank=3 ndens=2 mu0=0 mu=( 0  0  0 )
n=( 2  2  1 )
l=( 1  1  0 )
num_ms=2
< 0  0  0 >:  0.000180858095546449  -0.004459041805875382 
< 1  -1  0 >:  -0.000361716191092897  0.008918083611750763 
ctilde_basis_func: rank=3 ndens=2 mu0=0 mu=( 0  0  0 )
n=( 2  2  1 )
l=( 2  1  1 )
num_ms=5
< 0  0  0 >:  -0.000306472383027248  0.010654235505287483 
< 0  1  -1 >:  -0.000306472383027248  0.010654235505287482 
< 1  -1  0 >:  0.000530825738519904  -0.018453677210962194 
< 1  0  -1 >:  0.000530825738519904  -0.018453677210962194 
< 2  -1  -1 >:  -0.000750700958671562  0.026097440587398039 
ctilde_basis_func: rank=3 ndens=2 mu0=0 mu=( 0  0  0 )
n=( 2  2  1 )
l=( 2  2  0 )
num_ms=3
< 0  0  0 >:  0.000426147976736754  0.004897002568367990 
< 1  -1  0 >:  -0.000852295953473507  -0.009794005136735982 
< 2  -2  0 >:  0.000852295953473508  0.009794005136735983 
ctilde_basis_func: rank=3 ndens=2 mu0=0 mu=( 0  0  0 )
n=( 2  2  1 )
l=( 3  2  1 )
num_ms=8
< 0  0  0 >:  -0.000022359572353784  0.000804938184376925 
< 0  1  -1 >:  -0.000025818610234844  0.000929462554862052 
< 1  -2  1 >:  0.000014906381569189  -0.000536625456251283 
< 1  -1  0 >:  0.000042161613962112  -0.001517805996290429 
< 1  0  -1 >:  0.000036513028755741  -0.001314458550803861 
< 2  -2  0 >:  -0.000033331682487257  0.001199930998634708 
< 2  -1  -1 >:  -0.000047138117430193  0.001696958692181096 
< 3  -2  -1 >:  0.000057732167569683  -0.002078341455212176 
ctilde_basis_func: rank=3 ndens=2 mu0=0 mu=( 0  0  0 )
n=( 2  2  1 )
l=( 3  3  0 )
num_ms=4
< 0  0  0 >:  -0.000345622277358581  0.005772489643575400 
< 1  -1  0 >:  0.000691244554717162  -0.011544979287150800 
< 2  -2  0 >:  -0.000691244554717162  0.011544979287150798 
< 3  -3  0 >:  0.000691244554717162  -0.011544979287150798 
ctilde_basis_func: rank=3 ndens=2 mu0=0 mu=( 0  0  0 )
n=( 2  2  2 )
l=( 0  0  0 )
num_ms=1
< 0  0  0 >:  -0.000374153507638044  -0.112190394960934886 
ctilde_basis_func: rank=3 ndens=2 mu0=0 mu=( 0  0  0 )
n=( 2  2  2 )
l=( 1  1  0 )
num_ms=2
< 0  0  0 >:  -0.000114328571418623  0.008063691186904413 
< 1  -1  0 >:  0.000228657142837246  -0.016127382373808827 
ctilde_basis_func: rank=3 ndens=2 mu0=0 mu=( 0  0  0 )
n=( 2  2  2 )
l=( 1  1  2 )
num_ms=4
< -1  -1  2 >:  -0.000232497330066410  0.007303941427709091 
< -1  0  1 >:  0.000328800877395452  -0.010329333025844906 
< -1  1  0 >:  -0.000094916637537025  0.002981821601510423 
< 0  0  0 >:  -0.000094916637537025  0.002981821601510423 
ctilde_basis_func: rank=3 ndens=2 mu0=0 mu=( 0  0  0 )
n=( 2  2  2 )
l=( 2  2  0 )
num_ms=3
< 0  0  0 >:  0.000222765699302503  0.035308405157369202 
< 1  -1  0 >:  -0.000445531398605006  -0.070616810314738418 
< 2  -2  0 >:  0.000445531398605006  0.070616810314738432 
ctilde_basis_func: rank=3 ndens=2 mu0=0 mu=( 0  0  0 )
n=( 2  2  2 )
l=( 2  2  2 )
num_ms=5
< -2  0  2 >:  0.000427415151364950  -0.010418488674285267 
< -2  1  1 >:  -0.000348983009726188  0.008506660380988155 
< -1  -1  2 >:  -0.000174491504863094  0.004253330190494078 
< -1  0  1 >:  0.000213707575682475  -0.005209244337142632 
< 0  0  0 >:  -0.000071235858560825  0.001736414779047544 
ctilde_basis_func: rank=3 ndens=2 mu0=0 mu=( 0  0  0 )
n=( 2  2  2 )
l=( 2  3  3 )
num_ms=12
< -2  -1  3 >:  0.000031303836278660  -0.000841553233464198 
< -2  0  2 >:  -0.000088540619639175  0.002380271992448002 
< -2  1  1 >:  0.000048495694631861  -0.001303728663261537 
< -1  -2  3 >:  -0.000049495711070787  0.001330612495013149 
< -1  -1  2 >:  0.000038339212937170  -0.001030688006688285 
< -1  0  1 >:  -0.000027999002350243  0.000752708094684279 
< 0  -3  3 >:  0.000049495711070787  -0.001330612495013149 
< 0  -1  1 >:  -0.000029697426642472  0.000798367497007889 
< 0  0  0 >:  0.000019798284428315  -0.000532244998005259 
< 1  -3  2 >:  -0.000049495711070787  0.001330612495013149 
< 1  -2  1 >:  0.000038339212937170  -0.001030688006688285 
< 2  -3  1 >:  0.000031303836278660  -0.000841553233464198 
ctilde_basis_func: rank=3 ndens=2 mu0=0 mu=( 0  0  0 )
n=( 2  2  2 )
l=( 3  2  1 )
num_ms=8
< 0  0  0 >:  -0.000037910717105227  -0.000321877144189876 
< 0  1  -1 >:  -0.000043775525451749  -0.000371671711688026 
< 1  -2  1 >:  0.000025273811403485  0.000214584762793251 
< 1  -1  0 >:  0.000071485133719336  0.000606937363641657 
< 1  0  -1 >:  0.000061907941793873  0.000525623175419629 
< 2  -2  0 >:  -0.000056513960348701  -0.000479826116541376 
< 2  -1  -1 >:  -0.000079922809188549  -0.000678576601593627 
< 3  -2  -1 >:  0.000097885050660884  0.000831083212648129 
ctilde_basis_func: rank=3 ndens=2 mu0=0 mu=( 0  0  0 )
n=( 2  2  2 )
l=( 3  3  0 )
num_ms=4
< 0  0  0 >:  0.000124762599936703  -0.025442118727307353 
< 1  -1  0 >:  -0.000249525199873405  0.050884237454614706 
< 2  -2  0 >:  0.000249525199873405  -0.050884237454614699 
< 3  -3  0 >:  -0.000249525199873405  0.050884237454614699 
ctilde_basis_func: rank=3 ndens=2 mu0=0 mu=( 0  0  0 )
n=( 2  2  3 )
l=( 1  1  0 )
num_ms=2
< 0  0  0 >:  -0.000181785757049254  0.008278254166777604 
< 1  -1  0 >:  0.000363571514098509  -0.016556508333555205 
ctilde_basis_func: rank=3 ndens=2 mu0=0 mu=( 0  0  0 )
n=( 2  2  3 )
l=( 1  1  2 )
num_ms=4
< -1  -1  2 >:  0.000627644938339689  0.000037513026606778 
< -1  0  1 >:  -0.000887623984154814  -0.000053051430992969 
< -1  1  0 >:  0.000256234973095475  0.000015314628982343 
< 0  0  0 >:  0.000256234973095475  0.000015314628982343 
ctilde_basis_func: rank=3 ndens=2 mu0=0 mu=( 0  0  0 )
n=( 2  2  3 )
l=( 2  2  0 )
num_ms=3
< 0  0  0 >:  -0.000490862430497278  0.009697986437960113 
< 1  -1  0 >:  0.000981724860994556  -0.019395972875920226 
< 2  -2  0 >:  -0.000981724860994557  0.019395972875920233 
ctilde_basis_func: rank=3 ndens=2 mu0=0 mu=( 0  0  0 )
n=( 2  2  3 )
l=( 2  2  2 )
num_ms=7
< -2  0  2 >:  -0.000025413205139198  0.001396463885884603 
< -2  1  1 >:  0.000031124692659855  -0.001710311982320737 
< -2  2  0 >:  -0.000012706602569599  0.000698231942942302 
< -1  -1  2 >:  0.000015562346329927  -0.000855155991160369 
< -1  0  1 >:  -0.000012706602569599  0.000698231942942301 
< -1  1  0 >:  -0.000006353301284799  0.000349115971471151 
< 0  0  0 >:  0.000006353301284799  -0.000349115971471151 
ctilde_basis_func: rank=3 ndens=2 mu0=0 mu=( 0  0  0 )
n=( 2  2  3 )
l=( 2  3  3 )
num_ms=14
< -2  -1  3 >:  0.000284077534836919  -0.024391693507832587 
< -2  0  2 >:  -0.000401746302531887  0.034495063768024629 
< -2  1  1 >:  0.000440091024582018  -0.037787449096652485 
< -2  2  0 >:  -0.000401746302531887  0.034495063768024629 
< -1  -2  3 >:  -0.000449166021085247  0.038566653736746538 
< -1  -1  2 >:  0.000347922503869082  -0.029873601528273487 
< -1  0  1 >:  -0.000127043335755183  0.010908296953970796 
< -1  1  0 >:  -0.000127043335755183  0.010908296953970796 
< 0  -3  3 >:  0.000449166021085247  -0.038566653736746531 
< 0  -1  1 >:  -0.000269499612651148  0.023139992242047915 
< 0  0  0 >:  0.000179666408434099  -0.015426661494698615 
< 1  -3  2 >:  -0.000449166021085247  0.038566653736746538 
< 1  -2  1 >:  0.000347922503869082  -0.029873601528273487 
< 2  -3  1 >:  0.000284077534836919  -0.024391693507832587 
ctilde_basis_func: rank=3 ndens=2 mu0=0 mu=( 0  0  0 )
n=( 2  2  3 )
l=( 3  2  1 )
num_ms=8
< 0  0  0 >:  -0.000077218745679362  0.042541640004378864 
< 0  1  -1 >:  -0.000089164527208930  0.049122854616592555 
< 1  -2  1 >:  0.000051479163786241  -0.028361093336252564 
< 1  -1  0 >:  0.000145605063212257  -0.080217285679715200 
< 1  0  -1 >:  0.000126097683661453  -0.069470207221266997 
< 2  -2  0 >:  -0.000115110909650881  0.063417332616077043 
< 2  -1  -1 >:  -0.000162791409605380  0.089685651875181779 
< 3  -2  -1 >:  0.000199377944020796  -0.109842042171540338 
ctilde_basis_func: rank=3 ndens=2 mu0=0 mu=( 0  0  0 )
n=( 2  2  3 )
l=( 3  3  0 )
num_ms=4
< 0  0  0 >:  0.000478919684373947  -0.021252514690814333 
< 1  -1  0 >:  -0.000957839368747894  0.042505029381628666 
< 2  -2  0 >:  0.000957839368747894  -0.042505029381628659 
< 3  -3  0 >:  -0.000957839368747894  0.042505029381628659 
ctilde_basis_func: rank=3 ndens=2 mu0=0 mu=( 0  0  0 )
n=( 2  2  3 )
l=( 3  3  2 )
num_ms=12
< -3  1  2 >:  0.000577652813033155  -0.029908487617956749 
< -3  2  1 >:  -0.000913349292994083  0.047289471121843597 
< -3  3  0 >:  0.000913349292994083  -0.047289471121843590 
< -2  1  1 >:  0.000707477320207281  -0.036630266821171376 
< -2  3  -1 >:  -0.000913349292994083  0.047289471121843597 
< -1  1  0 >:  -0.000548009575796450  0.028373682673106148 
< -1  2  -1 >:  0.000707477320207281  -0.036630266821171376 
< -1  3  -2 >:  0.000577652813033155  -0.029908487617956749 
< 0  0  0 >:  0.000365339717197633  -0.018915788448737439 
< 0  1  -1 >:  -0.000516668382934444  0.026750964567184825 
< 0  2  -2 >:  -0.001633848885068915  0.084593977638764459 
< 1  1  -2 >:  0.000894895889906910  -0.046334029781838898 
ctilde_basis_func: rank=3 ndens=2 mu0=0 mu=( 0  0  0 )
n=( 2  3  1 )
l=( 2  1  1 )
num_ms=5
< 0  0  0 >:  0.004354233289072744  -0.137510503108661086 
< 0  1  -1 >:  0.004354233289072743  -0.137510503108661059 
< 1  -1  0 >:  -0.007541753284681735  0.238175177958559081 
< 1  0  -1 >:  -0.007541753284681735  0.238175177958559081 
< 2  -1  -1 >:  0.010665649779268746  -0.336830566889619654 
ctilde_basis_func: rank=3 ndens=2 mu0=0 mu=( 0  0  0 )
n=( 2  3  1 )
l=( 3  2  1 )
num_ms=8
< 0  0  0 >:  -0.000368187150392110  0.003997617313227388 
< 0  1  -1 >:  -0.000425145900782092  0.004616050863817879 
< 1  -2  1 >:  0.000245458100261407  -0.002665078208818257 
< 1  -1  0 >:  0.000694260348768033  -0.007537979495391552 
< 1  0  -1 >:  0.000601247098873361  -0.006528081736215286 
< 2  -2  0 >:  -0.000548860997812465  0.005959296040271004 
< 2  -1  -1 >:  -0.000776206666964017  0.008427717282347535 
< 3  -2  -1 >:  0.000950655134504139  -0.010321803519093405 
ctilde_basis_func: rank=3 ndens=2 mu0=0 mu=( 0  0  0 )
n=( 2  3  2 )
l=( 2  1  1 )
num_ms=5
< 0  0  0 >:  0.001878960318631945  -0.058582865009932955 
< 0  1  -1 >:  0.001878960318631944  -0.058582865009932948 
< 1  -1  0 >:  -0.003254454737276335  0.101468498650152908 
< 1  0  -1 >:  -0.003254454737276335  0.101468498650152908 
< 2  -1  -1 >:  0.004602494027585560  -0.143498126944682308 
ctilde_basis_func: rank=3 ndens=2 mu0=0 mu=( 0  0  0 )
n=( 2  3  2 )
l=( 3  2  1 )
num_ms=8
< 0  0  0 >:  -0.000416740850076870  0.010040187895662965 
< 0  1  -1 >:  -0.000481210883948388  0.011593410368550865 
< 1  -2  1 >:  0.000277827233384580  -0.006693458597108641 
< 1  -1  0 >:  0.000785814082898136  -0.018931959854427666 
< 1  0  -1 >:  0.000680534958441356  -0.016395558177361495 
< 2  -2  0 >:  -0.000621240579848620  0.014967028427715301 
< 2  -1  -1 >:  -0.000878566853518443  0.021166574590898640 
< 3  -2  -1 >:  0.001076020248021359  -0.025923653675130626 
ctilde_basis_func: rank=3 ndens=2 mu0=0 mu=( 0  0  0 )
n=( 2  3  3 )
l=( 2  1  1 )
num_ms=4
< 0  -1  1 >:  -0.005130299550473491  0.167879063880081114 
< 0  0  0 >:  -0.005130299550473492  0.167879063880081142 
< 1  -1  0 >:  0.017771878958935720  -0.581550136334803347 
< 2  -1  -1 >:  -0.012566616126289966  0.411218045002300636 
ctilde_basis_func: rank=3 ndens=2 mu0=0 mu=( 0  0  0 )
n=( 2  3  3 )
l=( 2  2  2 )
num_ms=8
< -2  0  2 >:  -0.000110383551980032  0.073294073244000030 
< -2  1  1 >:  0.000067595844586765  -0.044883270154494247 
< -1  -1  2 >:  0.000067595844586765  -0.044883270154494247 
< -1  0  1 >:  -0.000055191775990016  0.036647036621999994 
< 0  -2  2 >:  -0.000055191775990016  0.036647036621999994 
< 0  -1  1 >:  -0.000027595887995008  0.018323518310999997 
< 0  0  0 >:  0.000027595887995008  -0.018323518310999997 
< 1  -2  1 >:  0.000067595844586765  -0.044883270154494247 
ctilde_basis_func: rank=3 ndens=2 mu0=0 mu=( 0  0  0 )
n=( 2  3  3 )
l=( 2  3  3 )
num_ms=12
< -2  -1  3 >:  0.001954199373013753  -0.018646833938770341 
< -2  0  2 >:  -0.005527310513794100  0.052741210903055884 
< -2  1  1 >:  0.003027432650740498  -0.028887550921741119 
< -1  -2  3 >:  -0.003089860510398223  0.029483233198721492 
< -1  -1  2 >:  0.002393395659775254  -0.022837614234199600 
< -1  0  1 >:  -0.001747889055858489  0.016678235300896255 
< 0  -3  3 >:  0.003089860510398222  -0.029483233198721488 
< 0  -1  1 >:  -0.001853916306238933  0.017689939919232889 
< 0  0  0 >:  0.001235944204159289  -0.011793293279488595 
< 1  -3  2 >:  -0.003089860510398223  0.029483233198721492 
< 1  -2  1 >:  0.002393395659775254  -0.022837614234199600 
< 2  -3  1 >:  0.001954199373013753  -0.018646833938770341 
ctilde_basis_func: rank=3 ndens=2 mu0=0 mu=( 0  0  0 )
n=( 2  3  3 )
l=( 3  2  1 )
num_ms=8
< 0  0  0 >:  0.005226104430975241  -0.178406690662250456 
< 0  1  -1 >:  0.006034585600073300  -0.206006301758161092 
< 1  -2  1 >:  -0.003484069620650160  0.118937793774833600 
< 1  -1  0 >:  -0.009854437019551084  0.336406882070208024 
< 1  0  -1 >:  -0.008534192798925044  0.291336905880715813 
< 2  -2  0 >:  0.007790616510115663  -0.265952991974379327 
< 2  -1  -1 >:  0.011017595527853322  -0.376114328203870085 
< 3  -2  -1 >:  -0.013493743617805261  0.460644094524582770 
ctilde_basis_func: rank=3 ndens=2 mu0=0 mu=( 0  0  0 )
n=( 2  3  3 )
l=( 3  2  3 )
num_ms=14
< -3  0  3 >:  0.004460777411104890  -0.129247026677949600 
< -3  1  2 >:  -0.004460777411104891  0.129247026677949600 
< -3  2  1 >:  0.002821243350824147  -0.081742997021373331 
< -2  -1  3 >:  -0.004460777411104891  0.129247026677949600 
< -2  1  1 >:  0.003455303324869497  -0.100114316374104936 
< -1  -2  3 >:  0.002821243350824147  -0.081742997021373331 
< -1  -1  2 >:  0.003455303324869497  -0.100114316374104936 
< -1  0  1 >:  -0.002676466446662933  0.077548216006769741 
< 0  -2  2 >:  -0.003989840609490426  0.115602055016649718 
< 0  -1  1 >:  -0.001261698382702416  0.036556579604870729 
< 0  0  0 >:  0.001784310964441956  -0.051698810671179839 
< 1  -2  1 >:  0.004370651405336133  -0.126635706453144592 
< 1  -1  0 >:  -0.001261698382702416  0.036556579604870729 
< 2  -2  0 >:  -0.003989840609490426  0.115602055016649718 
ctilde_basis_func: rank=2 ndens=2 mu0=0 mu=( 0  0 )
n=( 3  1 )
l=( 0  0 )
num_ms=1
< 0  0 >:  0.053617895131106416  -0.929231441630907873 
ctilde_basis_func: rank=2 ndens=2 mu0=0 mu=( 0  0 )
n=( 3  1 )
l=( 1  1 )
num_ms=2
< 0  0 >:  -0.013029156965771426  -0.574936803927758477 
< 1  -1 >:  0.026058313931542849  1.149873607855516733 
ctilde_basis_func: rank=2 ndens=2 mu0=0 mu=( 0  0 )
n=( 3  1 )
l=( 2  2 )
num_ms=3
< 0  0 >:  0.005183348181010801  0.293985375951093475 
< 1  -1 >:  -0.010366696362021604  -0.587970751902186950 
< 2  -2 >:  0.010366696362021607  0.587970751902187172 
ctilde_basis_func: rank=2 ndens=2 mu0=0 mu=( 0  0 )
n=( 3  1 )
l=( 3  3 )
num_ms=4
< 0  0 >:  0.006067862166891576  0.124439634481750161 
< 1  -1 >:  -0.012135724333783153  -0.248879268963500322 
< 2  -2 >:  0.012135724333783151  0.248879268963500294 
< 3  -3 >:  -0.012135724333783151  -0.248879268963500294 
ctilde_basis_func: rank=2 ndens=2 mu0=0 mu=( 0  0 )
n=( 3  1 )
l=( 4  4 )
num_ms=5
< 0  0 >:  0.001492487446917673  -0.346053028908770377 
< 1  -1 >:  -0.002984974893835344  0.692106057817540532 
< 2  -2 >:  0.002984974893835344  -0.692106057817540532 
< 3  -3 >:  -0.002984974893835344  0.692106057817540532 
< 4  -4 >:  0.002984974893835345  -0.692106057817540643 
ctilde_basis_func: rank=3 ndens=2 mu0=0 mu=( 0  0  0 )
n=( 3  1  1 )
l=( 0  0  0 )
num_ms=1
< 0  0  0 >:  -0.003271006539950181  0.063853650779387636 
ctilde_basis_func: rank=3 ndens=2 mu0=0 mu=( 0  0  0 )
n=( 3  1  1 )
l=( 1  1  0 )
num_ms=2
< 0  0  0 >:  -0.002749071321579415  0.072905071821198555 
< 1  -1  0 >:  0.005498142643158828  -0.145810143642397083 
ctilde_basis_func: rank=3 ndens=2 mu0=0 mu=( 0  0  0 )
n=( 3  1  1 )
l=( 2  2  0 )
num_ms=3
< 0  0  0 >:  0.001456558975345148  -0.037245249462308623 
< 1  -1  0 >:  -0.002913117950690296  0.074490498924617260 
< 2  -2  0 >:  0.002913117950690297  -0.074490498924617274 
ctilde_basis_func: rank=3 ndens=2 mu0=0 mu=( 0  0  0 )
n=( 3  1  1 )
l=( 3  2  1 )
num_ms=8
< 0  0  0 >:  -0.000574314672076401  0.013833188378581966 
< 0  1  -1 >:  -0.000663161461045723  0.015973190068250195 
< 1  -2  1 >:  0.000382876448050934  -0.009222125585721308 
< 1  -1  0 >:  0.001082938131093737  -0.026084110154470000 
< 1  0  -1 >:  0.000937851932254019  -0.022589502028882647 
< 2  -2  0 >:  -0.000856137764825555  0.020621299706712910 
< 2  -1  -1 >:  -0.001210761638276087  0.029162921718993724 
< 3  -2  -1 >:  0.001482874106956316  -0.035717138810131943 
ctilde_basis_func: rank=3 ndens=2 mu0=0 mu=( 0  0  0 )
n=( 3  1  1 )
l=( 3  3  0 )
num_ms=4
< 0  0  0 >:  -0.000675726857859432  -0.015465691874571932 
< 1  -1  0 >:  0.001351453715718865  0.030931383749143865 
< 2  -2  0 >:  -0.001351453715718865  -0.030931383749143861 
< 3  -3  0 >:  0.001351453715718865  0.030931383749143861 
ctilde_basis_func: rank=3 ndens=2 mu0=0 mu=( 0  0  0 )
n=( 3  1  2 )
l=( 1  1  0 )
num_ms=2
< 0  0  0 >:  0.005338417543858241  0.077494539144904798 
< 1  -1  0 >:  -0.010676835087716481  -0.154989078289809568 
ctilde_basis_func: rank=3 ndens=2 mu0=0 mu=( 0  0  0 )
n=( 3  1  2 )
l=( 2  2  0 )
num_ms=3
< 0  0  0 >:  0.001051676052172095  -0.001099865103609807 
< 1  -1  0 >:  -0.002103352104344191  0.002199730207219615 
< 2  -2  0 >:  0.002103352104344191  -0.002199730207219616 
ctilde_basis_func: rank=3 ndens=2 mu0=0 mu=( 0  0  0 )
n=( 3  1  2 )
l=( 3  2  1 )
num_ms=8
< 0  0  0 >:  -0.000043426115527526  -0.001661841240818127 
< 0  1  -1 >:  -0.000050144158979354  -0.001918928975473533 
< 1  -2  1 >:  0.000028950743685017  0.001107894160545417 
< 1  -1  0 >:  0.000081885068720278  0.003133597895034570 
< 1  0  -1 >:  0.000070914549702395  0.002713775382345379 
< 2  -2  0 >:  -0.000064735830878872  -0.002477326654854619 
< 2  -1  -1 >:  -0.000091550290000391  -0.003503468953723774 
< 3  -2  -1 >:  0.000112125748152392  0.004290855633152848 
ctilde_basis_func: rank=3 ndens=2 mu0=0 mu=( 0  0  0 )
n=( 3  1  2 )
l=( 3  3  0 )
num_ms=4
< 0  0  0 >:  0.000220350236569185  -0.013565806415355189 
< 1  -1  0 >:  -0.000440700473138369  0.027131612830710378 
< 2  -2  0 >:  0.000440700473138369  -0.027131612830710375 
< 3  -3  0 >:  -0.000440700473138369  0.027131612830710375 
ctilde_basis_func: rank=3 ndens=2 mu0=0 mu=( 0  0  0 )
n=( 3  1  3 )
l=( 1  1  0 )
num_ms=2
< 0  0  0 >:  0.001686295578247772  -0.123571988442398181 
< 1  -1  0 >:  -0.003372591156495543  0.247143976884796307 
ctilde_basis_func: rank=3 ndens=2 mu0=0 mu=( 0  0  0 )
n=( 3  1  3 )
l=( 2  2  0 )
num_ms=3
< 0  0  0 >:  -0.002265553333923670  0.050629716872756324 
< 1  -1  0 >:  0.004531106667847341  -0.101259433745512661 
< 2  -2  0 >:  -0.004531106667847342  0.101259433745512689 
ctilde_basis_func: rank=3 ndens=2 mu0=0 mu=( 0  0  0 )
n=( 3  1  3 )
l=( 3  2  1 )
num_ms=8
< 0  0  0 >:  0.001462738030841958  0.155727335289721186 
< 0  1  -1 >:  0.001689024391721014  0.179818437899407185 
< 1  -2  1 >:  -0.000975158687227972  -0.103818223526480749 
< 1  -1  0 >:  -0.002758165281887482  -0.293642279465261336 
< 1  0  -1 >:  -0.002388641201950826  -0.254301673642085835 
< 2  -2  0 >:  0.002180521113491201  0.232144605108478952 
< 2  -1  -1 >:  0.003083722531740139  0.328302048976157390 
< 3  -2  -1 >:  -0.003776773355543422  -0.402086250750899044 
ctilde_basis_func: rank=3 ndens=2 mu0=0 mu=( 0  0  0 )
n=( 3  1  3 )
l=( 3  3  0 )
num_ms=4
< 0  0  0 >:  0.000836727968357379  0.017380652048905040 
< 1  -1  0 >:  -0.001673455936714758  -0.034761304097810079 
< 2  -2  0 >:  0.001673455936714758  0.034761304097810079 
< 3  -3  0 >:  -0.001673455936714758  -0.034761304097810079 
ctilde_basis_func: rank=2 ndens=2 mu0=0 mu=( 0  0 )
n=( 3  2 )
l=( 0  0 )
num_ms=1
< 0  0 >:  -0.027009667874696625  -1.098626400792085844 
ctilde_basis_func: rank=2 ndens=2 mu0=0 mu=( 0  0 )
n=( 3  2 )
l=( 1  1 )
num_ms=2
< 0  0 >:  0.013268965152623314  -0.144262297611252699 
< 1  -1 >:  -0.026537930305246621  0.288524595222505342 
ctilde_basis_func: rank=2 ndens=2 mu0=0 mu=( 0  0 )
n=( 3  2 )
l=( 2  2 )
num_ms=3
< 0  0 >:  0.059865693685720499  -0.040770354659037313 
< 1  -1 >:  -0.119731387371441012  0.081540709318074639 
< 2  -2 >:  0.119731387371441039  -0.081540709318074667 
ctilde_basis_func: rank=2 ndens=2 mu0=0 mu=( 0  0 )
n=( 3  2 )
l=( 3  3 )
num_ms=4
< 0  0 >:  0.027705397592629223  0.539931863777107890 
< 1  -1 >:  -0.055410795185258446  -1.079863727554215780 
< 2  -2 >:  0.055410795185258439  1.079863727554215780 
< 3  -3 >:  -0.055410795185258439  -1.079863727554215780 
ctilde_basis_func: rank=2 ndens=2 mu0=0 mu=( 0  0 )
n=( 3  2 )
l=( 4  4 )
num_ms=5
< 0  0 >:  -0.001331410783787695  -0.211273272323003747 
< 1  -1 >:  0.002662821567575389  0.422546544646007327 
< 2  -2 >:  -0.002662821567575389  -0.422546544646007327 
< 3  -3 >:  0.002662821567575389  0.422546544646007327 
< 4  -4 >:  -0.002662821567575389  -0.422546544646007383 
ctilde_basis_func: rank=3 ndens=2 mu0=0 mu=( 0  0  0 )
n=( 3  2  1 )
l=( 0  0  0 )
num_ms=1
< 0  0  0 >:  0.000339324464643881  -0.066303175730588512 
ctilde_basis_func: rank=3 ndens=2 mu0=0 mu=( 0  0  0 )
n=( 3  2  1 )
l=( 1  1  0 )
num_ms=2
< 0  0  0 >:  -0.002833784107130122  0.080953988453331141 
< 1  -1  0 >:  0.005667568214260244  -0.161907976906662254 
ctilde_basis_func: rank=3 ndens=2 mu0=0 mu=( 0  0  0 )
n=( 3  2  1 )
l=( 2  1  1 )
num_ms=5
< 0  0  0 >:  0.000261957827138686  0.000857182071086969 
< 0  1  -1 >:  0.000261957827138686  0.000857182071086969 
< 1  -1  0 >:  -0.000453724266044550  -0.001484682898459747 
< 1  0  -1 >:  -0.000453724266044550  -0.001484682898459747 
< 2  -1  -1 >:  0.000641663010617980  0.002099658690825171 
ctilde_basis_func: rank=3 ndens=2 mu0=0 mu=( 0  0  0 )
n=( 3  2  1 )
l=( 2  2  0 )
num_ms=3
< 0  0  0 >:  -0.002689325532705023  0.022661524972174194 
< 1  -1  0 >:  0.005378651065410046  -0.045323049944348388 
< 2  -2  0 >:  -0.005378651065410047  0.045323049944348402 
ctilde_basis_func: rank=3 ndens=2 mu0=0 mu=( 0  0  0 )
n=( 3  2  1 )
l=( 2  2  2 )
num_ms=10
< 0  0  0 >:  -0.000076510162120598  0.000230740381093098 
< 0  1  -1 >:  0.000076510162120598  -0.000230740381093098 
< 0  2  -2 >:  0.000153020324241195  -0.000461480762186196 
< 1  -2  1 >:  -0.000187410857333082  0.000565196196733425 
< 1  -1  0 >:  0.000076510162120598  -0.000230740381093098 
< 1  0  -1 >:  0.000076510162120598  -0.000230740381093098 
< 1  1  -2 >:  -0.000187410857333082  0.000565196196733425 
< 2  -2  0 >:  0.000153020324241195  -0.000461480762186196 
< 2  -1  -1 >:  -0.000187410857333082  0.000565196196733425 
< 2  0  -2 >:  0.000153020324241195  -0.000461480762186196 
ctilde_basis_func: rank=3 ndens=2 mu0=0 mu=( 0  0  0 )
n=( 3  2  1 )
l=( 3  2  1 )
num_ms=8
< 0  0  0 >:  0.000500302093609393  -0.018907057578437150 
< 0  1  -1 >:  0.000577699096843032  -0.021831989564988875 
< 1  -2  1 >:  -0.000333534729072929  0.012604705052291427 
< 1  -1  0 >:  -0.000943378674754743  0.035651489669326429 
< 1  0  -1 >:  -0.000816989897726105  0.030875095736395155 
< 2  -2  0 >:  0.000745806327064044  -0.028184977333258681 
< 2  -1  -1 >:  0.001054729422637635  -0.039859577199872695 
< 3  -2  -1 >:  -0.001291774451081255  0.048817812751381195 
ctilde_basis_func: rank=3 ndens=2 mu0=0 mu=( 0  0  0 )
n=( 3  2  1 )
l=( 3  3  0 )
num_ms=4
< 0  0  0 >:  0.000679764371740190  -0.082572762257100599 
< 1  -1  0 >:  -0.001359528743480381  0.165145524514201197 
< 2  -2  0 >:  0.001359528743480381  -0.165145524514201170 
< 3  -3  0 >:  -0.001359528743480381  0.165145524514201170 
ctilde_basis_func: rank=3 ndens=2 mu0=0 mu=( 0  0  0 )
n=( 3  2  2 )
l=( 0  0  0 )
num_ms=1
< 0  0  0 >:  0.000517667203551012  0.053021555943422997 
ctilde_basis_func: rank=3 ndens=2 mu0=0 mu=( 0  0  0 )
n=( 3  2  2 )
l=( 1  1  0 )
num_ms=2
< 0  0  0 >:  0.000893197643225373  -0.028898781795074008 
< 1  -1  0 >:  -0.001786395286450745  0.057797563590148003 
ctilde_basis_func: rank=3 ndens=2 mu0=0 mu=( 0  0  0 )
n=( 3  2  2 )
l=( 2  2  0 )
num_ms=3
< 0  0  0 >:  -0.001775683970863937  -0.146043153185396152 
< 1  -1  0 >:  0.003551367941727874  0.292086306370792359 
< 2  -2  0 >:  -0.003551367941727875  -0.292086306370792415 
ctilde_basis_func: rank=3 ndens=2 mu0=0 mu=( 0  0  0 )
n=( 3  2  2 )
l=( 3  2  1 )
num_ms=8
< 0  0  0 >:  0.000191121412682943  -0.002337803988527845 
< 0  1  -1 >:  0.000220687998120797  -0.002699463524178263 
< 1  -2  1 >:  -0.000127414275121962  0.001558535992351896 
< 1  -1  0 >:  -0.000360381991834831  0.004408205475661325 
< 1  0  -1 >:  -0.000312099959995400  0.003817617927024371 
< 2  -2  0 >:  0.000284906980476567  -0.003484992424278932 
< 2  -1  -1 >:  0.000402919315804728  -0.004928523551182757 
< 3  -2  -1 >:  -0.000493473365616448  0.006036183942843744 
ctilde_basis_func: rank=3 ndens=2 mu0=0 mu=( 0  0  0 )
n=( 3  2  2 )
l=( 3  3  0 )
num_ms=4
< 0  0  0 >:  -0.000128867375909514  -0.095535916644952951 
< 1  -1  0 >:  0.000257734751819028  0.191071833289905901 
< 2  -2  0 >:  -0.000257734751819028  -0.191071833289905874 
< 3  -3  0 >:  0.000257734751819028  0.191071833289905874 
ctilde_basis_func: rank=3 ndens=2 mu0=0 mu=( 0  0  0 )
n=( 3  2  3 )
l=( 1  1  0 )
num_ms=2
< 0  0  0 >:  0.003352322406970286  -0.095917920900287515 
< 1  -1  0 >:  -0.006704644813940571  0.191835841800575002 
ctilde_basis_func: rank=3 ndens=2 mu0=0 mu=( 0  0  0 )
n=( 3  2  3 )
l=( 2  2  0 )
num_ms=3
< 0  0  0 >:  0.003543058285027990  -0.101985529912783243 
< 1  -1  0 >:  -0.007086116570055981  0.203971059825566486 
< 2  -2  0 >:  0.007086116570055982  -0.203971059825566542 
ctilde_basis_func: rank=3 ndens=2 mu0=0 mu=( 0  0  0 )
n=( 3  2  3 )
l=( 3  2  1 )
num_ms=8
< 0  0  0 >:  -0.003652641059585693  -0.102128052512353046 
< 0  1  -1 >:  -0.004217706598009758  -0.117927317219638492 
< 1  -2  1 >:  0.002435094039723795  0.068085368341568669 
< 1  -1  0 >:  0.006887486033262560  0.192574502615628418 
< 1  0  -1 >:  0.005964737873015888  0.166774411386286986 
< 2  -2  0 >:  -0.005445035804426980  -0.152243511884859711 
< 2  -1  -1 >:  -0.007700443482227729  -0.215304839290878069 
< 3  -2  -1 >:  0.009431078662299201  0.263693497707293223 
ctilde_basis_func: rank=3 ndens=2 mu0=0 mu=( 0  0  0 )
n=( 3  2  3 )
l=( 3  3  0 )
num_ms=4
< 0  0  0 >:  -0.001034715830293847  0.074393156786350209 
< 1  -1  0 >:  0.002069431660587694  -0.148786313572700418 
< 2  -2  0 >:  -0.002069431660587694  0.148786313572700418 
< 3  -3  0 >:  0.002069431660587694  -0.148786313572700418 
ctilde_basis_func: rank=2 ndens=2 mu0=0 mu=( 0  0 )
n=( 3  3 )
l=( 0  0 )
num_ms=1
< 0  0 >:  -0.046156745977514950  0.699549277537182990 
ctilde_basis_func: rank=2 ndens=2 mu0=0 mu=( 0  0 )
n=( 3  3 )
l=( 1  1 )
num_ms=2
< 0  0 >:  -0.351233309258084325  -0.328175280496923683 
< 1  -1 >:  0.702466618516168428  0.656350560993847254 
ctilde_basis_func: rank=2 ndens=2 mu0=0 mu=( 0  0 )
n=( 3  3 )
l=( 2  2 )
num_ms=3
< 0  0 >:  -0.192027990789748998  0.097651574052999124 
< 1  -1 >:  0.384055981579498051  -0.195303148105998275 
< 2  -2 >:  -0.384055981579498107  0.195303148105998331 
ctilde_basis_func: rank=2 ndens=2 mu0=0 mu=( 0  0 )
n=( 3  3 )
l=( 3  3 )
num_ms=4
< 0  0 >:  0.010343986044477267  -0.028951637350757214 
< 1  -1 >:  -0.020687972088954534  0.057903274701514428 
< 2  -2 >:  0.020687972088954530  -0.057903274701514414 
< 3  -3 >:  -0.020687972088954530  0.057903274701514414 
ctilde_basis_func: rank=2 ndens=2 mu0=0 mu=( 0  0 )
n=( 3  3 )
l=( 4  4 )
num_ms=5
< 0  0 >:  0.265203079908295503  0.215780063014322315 
< 1  -1 >:  -0.530406159816590783  -0.431560126028644464 
< 2  -2 >:  0.530406159816590783  0.431560126028644464 
< 3  -3 >:  -0.530406159816590783  -0.431560126028644464 
< 4  -4 >:  0.530406159816590894  0.431560126028644575 
ctilde_basis_func: rank=3 ndens=2 mu0=0 mu=( 0  0  0 )
n=( 3  3  1 )
l=( 0  0  0 )
num_ms=1
< 0  0  0 >:  0.005070497289194637  -0.118500184885956816 
ctilde_basis_func: rank=3 ndens=2 mu0=0 mu=( 0  0  0 )
n=( 3  3  1 )
l=( 1  1  0 )
num_ms=2
< 0  0  0 >:  0.014953139533731633  -0.166531666909214143 
< 1  -1  0 >:  -0.029906279067463262  0.333063333818428231 
ctilde_basis_func: rank=3 ndens=2 mu0=0 mu=( 0  0  0 )
n=( 3  3  1 )
l=( 2  1  1 )
num_ms=5
< 0  0  0 >:  -0.001466280784555740  0.055906414926194026 
< 0  1  -1 >:  -0.001466280784555739  0.055906414926194019 
< 1  -1  0 >:  0.002539672817012496  -0.096832751121195104 
< 1  0  -1 >:  0.002539672817012496  -0.096832751121195104 
< 2  -1  -1 >:  -0.003591639741809355  0.136942189917492629 
ctilde_basis_func: rank=3 ndens=2 mu0=0 mu=( 0  0  0 )
n=( 3  3  1 )
l=( 2  2  0 )
num_ms=3
< 0  0  0 >:  0.004904473650946498  -0.121773088554788106 
< 1  -1  0 >:  -0.009808947301892997  0.243546177109576240 
< 2  -2  0 >:  0.009808947301892999  -0.243546177109576295 
ctilde_basis_func: rank=3 ndens=2 mu0=0 mu=( 0  0  0 )
n=( 3  3  1 )
l=( 3  2  1 )
num_ms=8
< 0  0  0 >:  -0.003794556920111226  0.118332678231640162 
< 0  1  -1 >:  -0.004381576918563145  0.136638807261933559 
< 1  -2  1 >:  0.002529704613407483  -0.078888452154426747 
< 1  -1  0 >:  0.007155085146157301  -0.223130237902822687 
< 1  0  -1 >:  0.006196485502812914  -0.193236454376309819 
< 2  -2  0 >:  -0.005656591478573958  0.176399941657037984 
< 2  -1  -1 >:  -0.007999628385803370  0.249467189893205793 
< 3  -2  -1 >:  0.009797503838551254  -0.305533661402175416 
ctilde_basis_func: rank=3 ndens=2 mu0=0 mu=( 0  0  0 )
n=( 3  3  1 )
l=( 3  3  0 )
num_ms=4
< 0  0  0 >:  -0.004698045198376387  0.014715112450717858 
< 1  -1  0 >:  0.009396090396752774  -0.029430224901435716 
< 2  -2  0 >:  -0.009396090396752772  0.029430224901435712 
< 3  -3  0 >:  0.009396090396752772  -0.029430224901435712 
ctilde_basis_func: rank=3 ndens=2 mu0=0 mu=( 0  0  0 )
n=( 3  3  2 )
l=( 0  0  0 )
num_ms=1
< 0  0  0 >:  -0.000484070791323182  0.111435938085029648 
ctilde_basis_func: rank=3 ndens=2 mu0=0 mu=( 0  0  0 )
n=( 3  3  2 )
l=( 1  1  0 )
num_ms=2
< 0  0  0 >:  0.007745732965074688  0.107901277101048784 
< 1  -1  0 >:  -0.015491465930149372  -0.215802554202097513 
ctilde_basis_func: rank=3 ndens=2 mu0=0 mu=( 0  0  0 )
n=( 3  3  2 )
l=( 2  1  1 )
num_ms=5
< 0  0  0 >:  -0.003959851416631066  0.012561966997502840 
< 0  1  -1 >:  -0.003959851416631065  0.012561966997502838 
< 1  -1  0 >:  0.006858663844028601  -0.021757965082678379 
< 1  0  -1 >:  0.006858663844028601  -0.021757965082678379 
< 2  -1  -1 >:  -0.009699615427983232  0.030770409309564001 
ctilde_basis_func: rank=3 ndens=2 mu0=0 mu=( 0  0  0 )
n=( 3  3  2 )
l=( 2  2  0 )
num_ms=3
< 0  0  0 >:  0.001445206665088275  0.102532999739097699 
< 1  -1  0 >:  -0.002890413330176550  -0.205065999478195399 
< 2  -2  0 >:  0.002890413330176551  0.205065999478195454 
ctilde_basis_func: rank=3 ndens=2 mu0=0 mu=( 0  0  0 )
n=( 3  3  2 )
l=( 3  2  1 )
num_ms=8
< 0  0  0 >:  -0.000592871020176302  0.028946332201103989 
< 0  1  -1 >:  -0.000684588486187031  0.033424345376719428 
< 1  -2  1 >:  0.000395247346784201  -0.019297554800735986 
< 1  -1  0 >:  0.001117928316628398  -0.054581727439677735 
< 1  0  -1 >:  0.000968154321810166  -0.047269162545199070 
< 2  -2  0 >:  -0.000883799935335906  0.043150644333973080 
< 2  -1  -1 >:  -0.001249881854976503  0.061024226442242473 
< 3  -2  -1 >:  0.001530786391727878  -0.074739108365775464 
ctilde_basis_func: rank=3 ndens=2 mu0=0 mu=( 0  0  0 )
n=( 3  3  2 )
l=( 3  3  0 )
num_ms=4
< 0  0  0 >:  0.001771865331704172  -0.047555748407071260 
< 1  -1  0 >:  -0.003543730663408343  0.095111496814142521 
< 2  -2  0 >:  0.003543730663408343  -0.095111496814142507 
< 3  -3  0 >:  -0.003543730663408343  0.095111496814142507 
ctilde_basis_func: rank=3 ndens=2 mu0=0 mu=( 0  0  0 )
n=( 3  3  3 )
l=( 0  0  0 )
num_ms=1
< 0  0  0 >:  -0.002570373994550592  0.073390305543231019 
ctilde_basis_func: rank=3 ndens=2 mu0=0 mu=( 0  0  0 )
n=( 3  3  3 )
l=( 1  1  0 )
num_ms=2
< 0  0  0 >:  -0.015577143081040011  -0.286846281202400244 
< 1  -1  0 >:  0.031154286162080019  0.573692562404800377 
ctilde_basis_func: rank=3 ndens=2 mu0=0 mu=( 0  0  0 )
n=( 3  3  3 )
l=( 1  1  2 )
num_ms=4
< -1  -1  2 >:  -0.034800297789940732  0.308313721290498388 
< -1  0  1 >:  0.049215053109156630  -0.436021446114741362 
< -1  1  0 >:  -0.014207162080376652  0.125868549643397887 
< 0  0  0 >:  -0.014207162080376654  0.125868549643397915 
ctilde_basis_func: rank=3 ndens=2 mu0=0 mu=( 0  0  0 )
n=( 3  3  3 )
l=( 2  2  0 )
num_ms=3
< 0  0  0 >:  -0.007070445442034103  0.187301515038007155 
< 1  -1  0 >:  0.014140890884068207  -0.374603030076014309 
< 2  -2  0 >:  -0.014140890884068211  0.374603030076014420 
ctilde_basis_func: rank=3 ndens=2 mu0=0 mu=( 0  0  0 )
n=( 3  3  3 )
l=( 2  2  2 )
num_ms=5
< -2  0  2 >:  -0.002044150562944193  -0.033274752877965906 
< -2  1  1 >:  0.001669041945545420  0.027168721956074171 
< -1  -1  2 >:  0.000834520972772710  0.013584360978037086 
< -1  0  1 >:  -0.001022075281472096  -0.016637376438982946 
< 0  0  0 >:  0.000340691760490699  0.005545792146327649 
ctilde_basis_func: rank=3 ndens=2 mu0=0 mu=( 0  0  0 )
n=( 3  3  3 )
l=( 2  3  3 )
num_ms=12
< -2  -1  3 >:  0.005645403754559092  -0.203550731181483757 
< -2  0  2 >:  -0.015967613109538925  0.575728409335628966 
< -2  1  1 >:  0.008745821889609677  -0.315339436789691840 
< -1  -2  3 >:  -0.008926167087836452  0.321841964963072547 
< -1  -1  2 >:  0.006914179295331070  -0.249297714082530292 
< -1  0  1 >:  -0.005049402622250668  0.182061308716633535 
< 0  -3  3 >:  0.008926167087836452  -0.321841964963072547 
< 0  -1  1 >:  -0.005355700252701870  0.193105178977843461 
< 0  0  0 >:  0.003570466835134581  -0.128736785985229030 
< 1  -3  2 >:  -0.008926167087836452  0.321841964963072547 
< 1  -2  1 >:  0.006914179295331070  -0.249297714082530292 
< 2  -3  1 >:  0.005645403754559092  -0.203550731181483757 
ctilde_basis_func: rank=3 ndens=2 mu0=0 mu=( 0  0  0 )
n=( 3  3  3 )
l=( 3  2  1 )
num_ms=8
< 0  0  0 >:  0.008561954762111973  -0.005414521377252376 
< 0  1  -1 >:  0.009886493773389486  -0.006252150749379283 
< 1  -2  1 >:  -0.005707969841407979  0.003609680918168250 
< 1  -1  0 >:  -0.016144576726671543  0.010209719420625813 
< 1  0  -1 >:  -0.013981613578644568  0.008841876383773291 
< 2  -2  0 >:  0.012763408578906938  -0.008071491910108064 
< 2  -1  -1 >:  0.018050185514399304  -0.011414813327859541 
< 3  -2  -1 >:  -0.022106872136427296  0.013980234081188330 
ctilde_basis_func: rank=3 ndens=2 mu0=0 mu=( 0  0  0 )
n=( 3  3  3 )
l=( 3  3  0 )
num_ms=4
< 0  0  0 >:  0.006149302828253826  0.007418966728566931 
< 1  -1  0 >:  -0.012298605656507653  -0.014837933457133861 
< 2  -2  0 >:  0.012298605656507651  0.014837933457133860 
< 3  -3  0 >:  -0.012298605656507651  -0.014837933457133860 
ctilde_basis_func: rank=2 ndens=2 mu0=0 mu=( 0  0 )
n=( 4  1 )
l=( 0  0 )
num_ms=1
< 0  0 >:  0.026783981996169853  0.293387116077905241 
ctilde_basis_func: rank=2 ndens=2 mu0=0 mu=( 0  0 )
n=( 4  1 )
l=( 1  1 )
num_ms=2
< 0  0 >:  -0.000731292048139904  -0.000147313719221763 
< 1  -1 >:  0.001462584096279808  0.000294627438443527 
ctilde_basis_func: rank=2 ndens=2 mu0=0 mu=( 0  0 )
n=( 4  1 )
l=( 2  2 )
num_ms=3
< 0  0 >:  0.003788366616033414  0.149871608996504785 
< 1  -1 >:  -0.007576733232066830  -0.299743217993009625 
< 2  -2 >:  0.007576733232066831  0.299743217993009681 
ctilde_basis_func: rank=2 ndens=2 mu0=0 mu=( 0  0 )
n=( 4  1 )
l=( 3  3 )
num_ms=4
< 0  0 >:  0.000745159500683911  -0.009235796535160863 
< 1  -1 >:  -0.001490319001367822  0.018471593070321726 
< 2  -2 >:  0.001490319001367822  -0.018471593070321722 
< 3  -3 >:  -0.001490319001367822  0.018471593070321722 
ctilde_basis_func: rank=2 ndens=2 mu0=0 mu=( 0  0 )
n=( 4  1 )
l=( 4  4 )
num_ms=5
< 0  0 >:  -0.000840321670604713  0.206808288234720777 
< 1  -1 >:  0.001680643341209425  -0.413616576469441388 
< 2  -2 >:  -0.001680643341209425  0.413616576469441388 
< 3  -3 >:  0.001680643341209425  -0.413616576469441388 
< 4  -4 >:  -0.001680643341209425  0.413616576469441499 
ctilde_basis_func: rank=2 ndens=2 mu0=0 mu=( 0  0 )
n=( 4  2 )
l=( 0  0 )
num_ms=1
< 0  0 >:  0.005175907413583140  0.925797395689514024 
ctilde_basis_func: rank=2 ndens=2 mu0=0 mu=( 0  0 )
n=( 4  2 )
l=( 1  1 )
num_ms=2
< 0  0 >:  -0.000887622241676922  0.033645543063135837 
< 1  -1 >:  0.001775244483353844  -0.067291086126271660 
ctilde_basis_func: rank=2 ndens=2 mu0=0 mu=( 0  0 )
n=( 4  2 )
l=( 2  2 )
num_ms=3
< 0  0 >:  -0.007494212450610742  -0.022166652382446576 
< 1  -1 >:  0.014988424901221487  0.044333304764893160 
< 2  -2 >:  -0.014988424901221490  -0.044333304764893167 
ctilde_basis_func: rank=2 ndens=2 mu0=0 mu=( 0  0 )
n=( 4  2 )
l=( 3  3 )
num_ms=4
< 0  0 >:  0.002845451954281934  -0.046700591647889957 
< 1  -1 >:  -0.005690903908563868  0.093401183295779913 
< 2  -2 >:  0.005690903908563867  -0.093401183295779899 
< 3  -3 >:  -0.005690903908563867  0.093401183295779899 
ctilde_basis_func: rank=2 ndens=2 mu0=0 mu=( 0  0 )
n=( 4  2 )
l=( 4  4 )
num_ms=5
< 0  0 >:  0.000869694358151443  0.107072335803016894 
< 1  -1 >:  -0.001739388716302886  -0.214144671606033704 
< 2  -2 >:  0.001739388716302886  0.214144671606033704 
< 3  -3 >:  -0.001739388716302886  -0.214144671606033704 
< 4  -4 >:  0.001739388716302886  0.214144671606033732 
ctilde_basis_func: rank=2 ndens=2 mu0=0 mu=( 0  0 )
n=( 4  3 )
l=( 0  0 )
num_ms=1
< 0  0 >:  -0.023738958337275112  0.496265601209524343 
ctilde_basis_func: rank=2 ndens=2 mu0=0 mu=( 0  0 )
n=( 4  3 )
l=( 1  1 )
num_ms=2
< 0  0 >:  0.038447675592308134  -0.339935846525970586 
< 1  -1 >:  -0.076895351184616254  0.679871693051941062 
ctilde_basis_func: rank=2 ndens=2 mu0=0 mu=( 0  0 )
n=( 4  3 )
l=( 2  2 )
num_ms=3
< 0  0 >:  -0.112086606533990357  -0.110600493608058778 
< 1  -1 >:  0.224173213067980742  0.221200987216117584 
< 2  -2 >:  -0.224173213067980798  -0.221200987216117639 
ctilde_basis_func: rank=2 ndens=2 mu0=0 mu=( 0  0 )
n=( 4  3 )
l=( 3  3 )
num_ms=4
< 0  0 >:  0.005695327506779006  -0.220917625290622061 
< 1  -1 >:  -0.011390655013558012  0.441835250581244121 
< 2  -2 >:  0.011390655013558010  -0.441835250581244066 
< 3  -3 >:  -0.011390655013558010  0.441835250581244066 
ctilde_basis_func: rank=2 ndens=2 mu0=0 mu=( 0  0 )
n=( 4  3 )
l=( 4  4 )
num_ms=5
< 0  0 >:  -0.315405500996659705  0.215576155343425030 
< 1  -1 >:  0.630811001993319187  -0.431152310686849893 
< 2  -2 >:  -0.630811001993319187  0.431152310686849893 
< 3  -3 >:  0.630811001993319187  -0.431152310686849893 
< 4  -4 >:  -0.630811001993319298  0.431152310686850004 
ctilde_basis_func: rank=2 ndens=2 mu0=0 mu=( 0  0 )
n=( 4  4 )
l=( 0  0 )
num_ms=1
< 0  0 >:  -0.014649999942881530  -0.243386597647789554 
ctilde_basis_func: rank=2 ndens=2 mu0=0 mu=( 0  0 )
n=( 4  4 )
l=( 1  1 )
num_ms=2
< 0  0 >:  -0.001024199721889995  0.037508550854455092 
< 1  -1 >:  0.002048399443779989  -0.075017101708910169 
ctilde_basis_func: rank=2 ndens=2 mu0=0 mu=( 0  0 )
n=( 4  4 )
l=( 2  2 )
num_ms=3
< 0  0 >:  -0.020667865744206360  -0.076518876184112378 
< 1  -1 >:  0.041335731488412727  0.153037752368224783 
< 2  -2 >:  -0.041335731488412734  -0.153037752368224811 
ctilde_basis_func: rank=2 ndens=2 mu0=0 mu=( 0  0 )
n=( 4  4 )
l=( 3  3 )
num_ms=4
< 0  0 >:  -0.000540993608743404  0.017020957667253707 
< 1  -1 >:  0.001081987217486809  -0.034041915334507414 
< 2  -2 >:  -0.001081987217486809  0.034041915334507407 
< 3  -3 >:  0.001081987217486809  -0.034041915334507407 
ctilde_basis_func: rank=2 ndens=2 mu0=0 mu=( 0  0 )
n=( 4  4 )
l=( 4  4 )
num_ms=5
< 0  0 >:  0.083370661422368472  0.310590786006205710 
< 1  -1 >:  -0.166741322844736889  -0.621181572012411198 
< 2  -2 >:  0.166741322844736889  0.621181572012411198 
< 3  -3 >:  -0.166741322844736889  -0.621181572012411198 
< 4  -4 >:  0.166741322844736917  0.621181572012411309 
