     -1.5148836065
    -23.0717323416
    -28.6031865041
      9.2817563202
     12.9931247602
     -6.9357923869
     37.4948008326
     45.8259866254
     26.3904589931
     14.5094107446
    -21.2712549228
      2.0392729220
     49.2149994578
     15.2452673069
    -30.6123976033
     -2.6356752605
     25.6433325547
     53.3854854772
    -12.8910885911
    -39.8711060595
     17.3433781278
    -72.5911922258
    -92.0693309913
    -77.5451086462
    -25.7034924180
     49.2959782967
      4.4369485424
    -87.5846497749
    -20.2616647886
     72.1212201338
      5.5726262380
      9.4311371816
    -35.0041421054
      5.2342549128
     42.7303008082
    -13.9034492962
     36.6918722564
     50.4803994620
     76.6767431985
     15.5185735743
    -36.5686401182
    -12.2052861566
     42.0230909993
      3.9153392450
    -63.6699288897
     -0.0152455372
    -13.0254942934
     10.4000839128
     -0.2426191484
    -16.4851490600
      0.8978517470
      7.1730343894
     -7.0109668440
    -28.4330065305
     -4.8049883309
     11.4254869877
      7.4686930210
     -6.9679294730
      0.5500558743
     24.8321235123
     -1.9405253084
      2.6113365627
     -0.4983393421
     -0.0376963762
      2.0022693845
      2.4119300524
     -5.6286943976
      0.9945270897
      5.3742820630
      2.7124627204
     -3.7620415294
     -0.8335422076
      3.0024363106
      0.7900733056
     -3.7397225893
     -8.2046737741
      1.6407557756
     -2.1546999549
    -36.0564486673
    -17.1933807804
      2.4171642734
     -3.3080824476
     25.0709233885
     -2.5673455740
     12.3144607620
      5.2675526416
     -2.9331623091
    -18.9357110274
      8.1640051072
      8.2611775168
      5.1761163456
      2.7149385355
     -0.0897925207
      2.9663604693
      6.2855923238
      4.4571521540
      1.0493754585
     -1.2708012876
      1.3931532616
      5.4321618963
     -4.7434461456
      0.1328308991
     10.7908992660
      0.6363685728
     -8.9094336106
      0.1099649278
    -12.4628230206
      3.3631022626
     18.8894500318
      8.7813346952
    -12.0345566069
     -7.6242296133
    -20.7199786495
     -0.7750149748
     -6.8554390888
     -2.0309264565
      1.3944271553
      8.7402070195
     -9.6664860444
      5.7250630076
     10.9118914118
      9.3634779119
      0.4021093208
     24.2334790282
     10.7979343027
     -9.9947036054
      8.9608087390
    -19.8710102061
      7.4690698616
     -0.0609826493
    -10.4936947335
      0.4490431934
     14.8079150753
     -0.8571616060
     -3.5192769697
      3.1924893231
      9.6835910832
     -3.2696415983
      4.4652723529
      1.5597558801
      4.6988907999
      6.7474727213
      2.7857884036
      0.0534103066
     -6.2107837818
      0.3302765389
      0.3921712972
     -0.9562773090
      2.6959603895
     -7.9168878958
    -13.4034359230
    -11.7413124720
     -1.9241903690
    -12.4384271951
     -8.9322416185
     13.7723515736
     -8.8154452078
     12.6028141140
     -2.1457227402
    -11.0276961356
     13.6776610404
     -0.6544666938
     -8.5513172855
     -5.0943140166
      3.0981951786
     -0.9588589400
      0.0520510478
      1.4363658471
     -0.5219916206
     -0.4355142753
      1.5815585351
      0.5402998566
      0.5589267174
     -0.4567415784
      2.0038033152
      0.4746685843
     -0.5602071622
      0.5737612523
      0.9001657326
      0.3706122692
      2.9959822494
      0.1850204549
      1.2360574198
     -2.6456022877
     -1.6494278172
     -4.0795590267
      1.7047309972
      1.2411605369
     -3.2970408694
      0.8013833548
     -1.7037963984
      0.2612640142
     -5.6775495835
      1.5112511814
      1.8549677346
     -0.7820730700
     -1.5402531343
      0.3716741661
      1.0307518521
      0.0380101252
      0.8802248357
     -1.5726849069
      1.0828492790
     -1.3215657503
     -1.6779297036
      0.7824257092
      0.5831144829
     -0.6402725384
     -1.0397558408
     -0.7499525759
     -4.3731943153
     -1.3534787908
      0.5502022037
      1.7046411013
      0.6351323742
     -3.3995343327
      0.5751924270
     -3.3588035145
      1.2363268551
     -6.1600938478
     -1.8460120521
      1.7246148270
     -2.0310904845
      4.2644874941
     -0.3661828575
     -5.8853700614
      0.3047755848
      1.1434342333
      2.2993819355
     -1.7965337460
     14.7121305933
      5.5549871331
      0.2163965755
     -1.8406200751
     -6.5220490064
      0.4412541736
      3.4479141261
      9.2894115850
     -1.2885504128
     -2.0923870198
     -1.0955687818
      0.4607922759
      0.4213106903
     -0.1217654816
      1.2501830219
      3.6448485492
      1.5060388183
     -0.7861647063
      0.0014115749
      0.0967074063
     -0.7316254180
     -0.1627692391
      6.3488565882
      1.4313290779
      0.0843140126
     -0.8414094487
      1.9471435758
     -0.4350963912
     -1.9370710655
      8.0839448352
     -2.7836054058
     -0.2181617732
      1.4973217457
      0.6451316640
     -0.9331253116
      0.5022048090
     -0.5521580101
     -0.0111444091
      1.7938923742
     -0.3903937557
      0.6498425702
      1.3034103890
     -0.4534657208
      0.4805245101
     -3.0519371526
      0.8863010967
     -2.4643255646
     -0.4564047761
      2.5098131375
      1.4898408247
      1.6133846536
     -3.1319336139
     -0.7148087267
      3.0731565584
      2.8132546950
     -0.1010478385
      3.0364704295
     -0.9880662279
     -0.8385545586
     -1.3686573649
     -3.7522903701
     -1.5076459114
      0.3413665100
      0.4095027262
     -1.3689433488
      2.7518197722
     -0.6001320582
      2.2483217433
      0.6279061727
      1.3567068873
     -0.6330534845
     -2.1863958454
      0.1012676608
      0.6710399292
     -3.1116392120
      3.4076742521
      1.6971081219
     -2.6033052111
      1.0251326627
     -1.6717211337
     -0.0108464119
      0.2339795099
      2.3421039083
      1.3498248441
     -0.2341262318
     -6.5482903906
      0.7719364741
     -1.2099398709
      0.9299533875
     -3.3657795857
     -1.5575801779
      1.3819450734
     -2.2208204504
     -0.3188370763
     -0.3485246170
      0.2359543549
     -2.7747188757
     -4.9323460791
     -0.4286895631
      0.9393750781
     -4.4356232059
      3.0977441728
      0.5813820174
     -1.4494993353
      6.0223008317
      1.7858515237
      1.1376123685
      0.3140002834
     -0.7595303543
     -0.4070721039
      2.5208089682
     -0.6241642000
      2.4805594611
      0.8751984759
      0.7368143854
      9.2875640996
     -0.1822748343
      1.2213920364
     -5.7315977397
      0.2640265384
      2.6265395217
      3.9217792302
     -2.2381212618
     -0.0899929066
      2.6336048992
      3.3286783386
     -0.8432611554
     -1.8683921047
     -3.1435001769
     -0.7548831096
     -3.4540064670
     -0.4331086068
      1.2000299037
      1.8900861982
     -0.1384698207
      4.8309151010
      1.1420286079
     -1.7918904405
     -0.5537960342
     -2.7719856944
     -1.0745332681
      1.9107227057
     -1.1522763820
      1.0653567933
     -2.0050576062
     -0.7528231807
     -0.2228308614
      2.3748558473
     -1.0198590837
     -4.4503524044
      0.1264113955
      1.0000422309
      0.1844516615
     -0.5769867827
     -0.8417576298
      7.3845664514
      0.1091322498
      6.7222816243
      1.4795208324
     -0.3215822286
      4.4330504403
     -1.8054975489
      0.9896924177
      0.4422465324
      1.0212150324
      1.4944376843
     -0.2009639373
      1.2129021170
      0.0144061376
      0.4353509219
      0.2906928856
     -0.1826554173
     -2.0493707941
     -0.1105662598
     -0.7363866521
    -18.0202945654
      1.3946964972
     -1.2686639810
     -2.6880218611
     -2.6963678953
     -0.8118991685
     -2.0202611088
      0.3484062375
      1.2403197057
      5.3947577861
      0.8855661637
     -4.2598544320
     -5.0644395382
     -2.0795959706
      1.3509995640
      1.3261713039
      0.1254797520
      0.0541040828
      1.5752072855
     -0.1390445808
      0.2654624628
     -1.5471409627
      0.1491978281
      0.8008383528
     -2.3062304549
     -1.1095408553
      1.1633671065
      0.0461748819
      1.7494027158
      0.4878833269
    -11.5068821596
     -3.9586830974
      2.2751625985
     -3.8001597550
      1.5775181099
     20.9664477674
      7.6430340918
     -2.4870090586
      0.1376985063
     -0.5560973346
     -0.5933829681
      1.1851936303
      4.3947993981
     -4.8610079623
     -2.8959713917
     -0.1704893733
     -0.1313954209
     -0.2515790104
     -0.1664860945
      0.4734660576
      0.0095992169
     -0.0755707767
     -0.1723507697
     -0.3287390985
      0.0898094055
      0.0331997843
      0.2072265687
     -0.0719058602
      0.1220033357
      0.3904253095
     -0.3833771887
