     -6.0175750118
     -5.6180346184
     -8.2611321549
      4.4246722344
    -11.9669070780
     -0.8705996758
     -1.1399782775
     16.1914687173
     -2.8352227751
      7.8723066421
     -3.4254090122
      0.5636540084
    -10.3160439455
     -0.4868292649
      8.6689345997
     13.9929169613
     19.7111844810
      3.7713405394
    -13.6733648400
     16.3679101494
     -2.1690334082
     -2.5818607695
    -28.7912459892
      2.9089922107
    -21.0211985767
      8.6981437948
     -2.5975278864
     20.1006461053
      2.7823792848
    -16.7608344367
    -13.4167564325
    -23.9423591242
     11.6260900422
     14.0393741955
     -4.9078968083
      2.5781190870
      5.8526057479
     14.6789038360
      1.1363156563
     15.9577348833
     -5.6835085433
      3.8456486986
    -10.6698095863
     -0.7782738429
     10.4949621113
      4.3576953656
     13.3642056537
     -6.8896815200
     -7.5582686954
      1.0692420539
      5.4030456868
     -4.0322273261
     -3.2429762462
      2.8212531995
     -5.6167940113
      1.4695025519
      0.0865018932
      2.5762079058
      2.0156874883
     -0.4115237096
     -0.4554070838
     -4.3924988478
      0.0887427118
      3.7150917428
     -1.0938283254
     -3.6177473477
      1.3544226142
      0.0099925378
     -3.4295398458
      3.1523749841
     -0.4196780457
     -1.6347713446
     -0.9848765755
     -2.5318587860
     -3.4783327846
      8.4914947521
    -20.0644439625
      4.8310905956
     16.7859770188
     -2.7657900338
     -3.6171182633
     -8.8183204699
     13.4651289878
    -11.6609230976
     15.2185012865
     10.8576697899
    -20.0716992380
    -16.7653732610
     -2.4736071448
     26.0581148539
      2.7774635723
     -2.1122409504
      4.3149295407
      2.4663188185
      1.9768753916
     -4.2952113977
      6.1961774386
     -7.0862000440
     -1.1449347707
     -2.7467140442
      2.6041306679
      4.8068982114
     -1.0994350280
     -9.0479343116
     -1.8627963776
     -2.8839055977
     17.6206755406
    -12.2751286209
    -24.5630299481
      3.9749572945
      9.4873266281
     -3.9190412430
    -10.1118780947
     10.0433110962
     -2.0583733973
    -10.0973513951
      6.8714238877
     13.9040798487
      4.4788611144
    -20.1911554995
     -2.9360268420
     10.8177183236
     -0.5071693425
    -10.7950483450
      4.8390666388
     -1.4300128236
     12.3837075394
    -17.4178459034
      5.5908760632
    -12.9187343515
     -4.4913271405
     16.0910420248
     10.7679064722
     -8.0512247496
    -19.9546543877
     -2.7986412544
     -2.6201091304
      6.5457375443
      7.9813783197
     -1.4403390263
     -5.6418728616
      3.1845478065
      2.5833055606
     -1.6384377727
     -8.8871874425
      4.8827504739
      5.0982651944
     -3.8063440559
      0.5582292122
      5.4895989909
     -2.9998905745
     -4.0582428113
     -7.7351701984
      8.7636845612
     -9.8388034378
     -3.2220732596
     -9.7271225605
     21.0119381862
     -7.9938392933
      8.4561773201
     -7.3537397711
     -8.7970888629
     -8.2234444006
     10.1335847148
      4.1845851973
     -0.4771060175
      0.2439258186
      0.5034847761
     -0.7283128033
     -0.4654022897
     -0.6401183150
     -0.3086979862
     -0.0842303931
      0.1225033053
      0.5636506693
     -0.0832097609
     -0.6714569209
      0.6818793607
      0.2820479502
     -0.3184260206
      2.1173748686
     -1.4810329012
      3.0935390793
     -0.9011582672
      3.0566478351
      7.8295145781
      0.2041307714
     -3.2915038776
      5.1254550971
      0.7999836259
      3.3264134696
     -2.8824241788
      2.1679585626
      1.6581279128
      6.3759440221
     -0.0774827784
      0.9213463183
      0.6602347268
     -0.4247525699
      0.5705955336
     -0.5101708345
     -0.6853440057
      0.5818831839
     -0.2682036762
      0.1685797626
     -0.9052237803
     -0.6386925738
      0.2284678172
      0.2275797428
      0.8088046200
      2.7501327725
      0.6390736441
     -3.5312883074
      2.2808170937
      0.8707869823
     -1.8009292139
      2.4997060120
     -3.7721520486
     -0.5286493722
      1.2958516178
     -0.0820279745
      1.4727571592
     -1.3444356248
      7.0624334464
      0.0432760462
      2.1583461383
      1.7573810764
      0.2990121378
      1.4636852178
      1.3864368169
     -3.6571226359
     -0.4119440606
     -2.4407922297
      0.1864698622
      0.7810353427
      0.3189352557
     -1.9236194536
      1.3519349292
      3.3533228887
      0.0309913390
     -0.7455967437
     -1.8503902251
     -1.4039458842
      0.5036779921
     -1.3798473792
      3.0000455808
      1.0581801387
      2.1060505199
     -0.6555900400
     -2.6969790262
     -1.3342900486
      0.2022164515
     -0.5995902314
     -4.9765546749
     -0.5572728605
      0.1389090289
     -1.9379183481
     -3.8890267797
      0.6313639826
     -2.8642882755
      0.3874280935
      0.7186095119
      0.4712872274
      1.0100901192
     -1.7395916877
     -1.8664864476
      4.0408909116
     -0.9830096413
     -1.1672459180
      0.7139763277
      3.8375137799
      0.2901974621
      0.1751375978
     -1.5295203080
     -0.2929227899
      2.9079001213
      0.8458111139
      0.5410512243
      0.3097833135
      0.6530522960
      2.2529380177
     -3.7489260033
     -0.1017228834
     -3.8276355171
      0.7233595353
      1.0409729539
      0.7629615008
      2.6686492145
      0.9580742069
      1.5192217749
      1.1619898055
     -1.1287154156
     -1.7730429602
     -0.0862014969
     -3.2287382150
      0.8866418977
     -2.8771553306
      3.3046831200
      2.1876284999
      0.1517852303
     -1.5691324844
      0.3272722608
      3.1595288399
     -1.6256400659
      2.2013147093
      0.2268914707
     -0.5309070441
      0.9922888885
      0.2591788913
      2.1604497896
      0.4555994117
     -4.9732629652
      3.6593987435
      3.6455960739
      1.2336582874
      2.1295394878
     -0.8129583299
      2.1258087286
     -0.1283003970
     -0.0845990087
      2.8748823261
     -0.2492924664
     -0.6056349682
     -0.3272914856
     -3.1749877561
     -0.3168833554
      2.4264672427
      1.9430418819
      3.7175486413
      0.7622633906
      0.2396631420
     -0.3387750838
     -0.9001895778
     -0.2544501997
     -0.0345213625
     -3.5242754743
     -0.0827072039
      3.2532106559
      0.0523462633
      1.1584880592
     -1.7384000155
      2.1607471942
      1.2745499775
     -3.7081387362
      0.0160518561
     -2.0356555966
     -0.8540119957
      1.3880952170
     -0.5501736779
     -0.1080563797
     -2.2707181651
     -1.2271248642
      0.7926926796
     -1.1476592837
     -0.9305240627
      0.4742237410
     -1.1695549311
     -0.5726225263
     -1.1619839595
     -0.4106797835
     -0.5577077970
      0.0718517282
     -0.8038634858
      1.4539824747
     -1.5927506335
     -0.1312035261
     -0.0874395898
     -3.0647163927
      0.9660012798
     -0.4834193601
     -0.8844893945
      0.8293836611
      2.1034384317
      8.6954853344
     -0.1726369910
      1.2780059671
      0.3039309513
      1.9534925271
      2.0041931793
     -0.0003153085
     -4.3470900550
     -2.0143259767
     -3.8282372412
     -0.1043102385
     -0.6719333640
     -0.5862582115
     -3.4125183223
     -2.0711250073
      4.6766139539
     -0.7422373940
      0.1588460086
      1.4350333537
     -1.9843989008
      2.3211408734
     -0.2964071364
     -0.6607020219
      0.4970496405
     -2.6152997983
     -0.2182155470
      1.4399329414
     -0.3410413194
     -0.8277955248
     -3.6791330908
      1.0215730017
     -0.4696738514
     -1.8828707425
     -0.2897638594
      0.1609087455
     -2.6017179998
      0.7937607038
     -1.1884553389
      0.6438624059
      0.3586874089
     -0.2837313055
      0.6709407616
      1.4534078082
     -2.9204727739
      0.0646263411
     -0.2507301017
      0.0059343218
     -1.6101842172
     -0.3059797042
     -1.6861104515
      1.7568534719
     -1.8760032329
      1.0961779265
     -0.4183264621
      0.1133533684
      0.7275940451
     -0.3153242647
     -0.9408166589
      6.5352270708
      0.3489030406
     -2.4137748032
      0.3008146371
     -2.0226682303
      1.5365765103
      1.7475103279
      1.0761091185
      0.4794897399
     -3.7745572938
     -1.8400621141
     -4.8181950921
     -0.1987167638
      1.1203140752
     -1.7651655798
     -6.3122148415
      3.1590518468
     10.8754048241
      0.9749738051
      0.0137876999
     -0.2127333438
     -0.1385195578
     -0.0729240226
      0.2006679368
      0.0703799046
     -0.1525774741
     -0.0910936044
     -0.1609372192
      0.0263600738
     -0.1230467481
      0.0673440467
     -0.0330133582
      0.0178171335
      0.1679700490
     -0.1917801729
