     -0.4050794381
     -0.3834951581
     -0.7578710041
      0.4600527300
      7.6373534556
      0.8864618098
      2.2802746721
      0.3405583058
      1.2335806357
      5.3300221370
      2.1586923541
      5.3110434121
     -1.3189612853
      0.8296523625
     -0.7173868404
      0.5387883237
     -0.5392131243
      0.0792746524
      0.3662602913
    -13.3901422358
      0.2223843147
     -4.9741548177
     -4.4632454125
     -4.1727361764
    -14.8642370894
     -2.7955785492
    -15.8483279174
      0.0496845238
     -0.5996483023
      1.8964966717
      0.3390298526
     -0.1201248102
     -0.0188024987
     -0.0141944877
      4.6623965704
      0.4448445064
      4.7001340100
      9.0938192343
      5.6639833084
     15.8715759169
     -0.2819911639
     17.7965300280
     -0.2657376772
      0.3427250573
     -1.7934924015
     -0.5326883130
     -0.3458486349
      0.8828512805
      0.0839867598
     -1.9451820885
     -0.3317388740
     -6.3976767103
     -4.8831971486
     -6.1529915364
     -8.3258039508
     -0.7304247530
    -10.6762193371
     -0.0619849195
      0.6833891261
      1.1321101392
      1.5189474974
      0.8091910034
     -0.4832147425
      0.6131764657
      5.6923897134
      0.6053343045
     -1.9694914705
      0.3799269381
      9.8160511570
      1.0374557748
      1.3094141915
      4.9214996085
     -0.1671823276
      0.5269884404
     -1.4928260066
      3.5933927579
     -0.6075047742
     -0.9664064340
     -0.3942950959
     -0.1377803644
      0.2521050466
      5.7791791722
      3.3728303276
      2.9471440819
     -5.5439130947
     -2.1222069957
     -0.2880218555
     -1.0326338313
      0.7834222831
     -1.7170205429
      3.9558683464
     -0.4696527360
     -0.5938982013
      0.3094809069
      1.0113262823
     -0.2792863685
      6.3201058234
      3.2536021181
      3.9598365927
     -8.3797488249
     -2.6311009528
      1.6960205406
     -0.6987155581
      0.3318220146
     -2.0406817761
     -9.2174020908
     -0.0375185567
      0.2215013022
      0.7799364337
      1.7303061203
     -0.7952352400
    -14.8732287417
     -6.3063981540
     -8.8367136033
     17.9294990269
      5.5410186845
     -2.1199191661
      0.0469455904
      0.8840810607
      3.9885973402
     -8.6203429065
      0.8365508614
      0.1998425362
      0.7173053040
      1.8742677885
      1.1912025555
    -15.1765978173
     -6.5520192416
     -8.1054232301
     15.3107680428
      5.9083248313
     -1.8965495991
     -1.3058675055
     -0.4609507524
      3.7607809859
      6.1515695742
      0.8964650478
      0.0132009670
     -0.1253507133
     -4.6531757219
     -0.9274234726
     16.0134560479
      2.9851444092
      6.4561009121
    -13.5392896789
     -2.7991124915
      3.4735258808
      0.9466920873
     -0.1494175781
     -1.8480916878
      4.7822416481
     -0.5610487365
     -0.5876763302
      0.9028797162
     -4.9465904163
      0.8969373419
     10.4205362490
      1.6009143173
      4.5844308166
     -6.9840005129
     -3.1980954268
      0.0560923092
      0.4842579084
      0.3004843409
     -1.3151365390
     -0.1559130642
     -0.4010547755
     -0.1915874464
     -0.0052879449
     -1.4259666728
     -0.5111292486
     -3.0237835479
     -0.7863345524
     -0.5562497465
      0.6734182387
     -0.4443705058
     -0.4884574283
     -0.9397495955
      0.2612642598
     -0.0246143466
     -0.0275858086
     -0.0797256385
      0.5778345346
     -0.3302398916
      2.5676070094
     -0.8300118313
     -3.7633208111
      3.4053939202
     -0.8060302027
      0.1840297527
     -0.8456343226
      0.1000392179
     -0.8434174869
      0.0246289811
     -0.6680615628
      0.5422450051
     -0.4528259084
      0.0954801210
      0.7321282634
      0.5435169333
      0.6302249379
      1.3291015417
     -1.9254488404
     -0.0943154466
     -1.1882533758
      0.4425674088
     -1.3790437082
      0.6920007713
      0.3736859099
     -0.9865545500
      0.1041226365
     -0.5526284150
     -3.3926645930
     -6.2229126731
     -2.8717121871
      1.7064800726
     -5.8282081950
      0.4290033023
     -2.3261503376
      4.1246750583
      1.6985633157
      2.1595876927
      0.8432383368
      1.9421521949
      4.3255607806
      0.7745027078
      0.0479406723
      0.1348725443
      0.2638790852
     -0.8231315950
      0.0971307370
     -1.3724806822
      1.3080132446
      2.7158085227
     -1.4528222035
      1.4997798664
     -0.8086262828
     -0.3478435603
     -0.1555429197
      1.7523379918
     -0.2009137027
      0.8665440879
      0.3278929639
     -0.8979039594
     -1.4134630216
      0.3516331616
      0.2667711454
      1.1704619189
      1.2331168155
     -1.0516586201
     -0.0073087322
     -0.6698191387
      0.5836412040
      0.4855962380
      1.5595945830
     -0.1079529198
      0.0213740317
     -1.0903869309
     -0.3373775139
      0.0446392485
     -0.1758059561
      0.8630714526
      0.0908510216
     -2.3427650437
      1.1937462277
      0.0740606756
      0.5622901549
      0.1758851466
     -1.1272812393
     -0.3592638252
      0.5186666183
     -0.2250047554
      0.5528585716
     -0.3455587528
      0.0428358666
      0.1172680719
     -0.4058253862
      0.4924075101
      2.0217379079
      3.1042481131
      0.4332090417
      6.9667942406
     -0.3176725371
      0.3279931559
      0.6041927627
      0.6803781499
     -0.3973802682
     -0.0553230291
     -0.0385451323
      0.2238450957
     -0.4018308356
      0.4722996393
     -0.5515614791
     -2.1703465672
      1.0302948749
     -1.0927769604
      0.7856772906
      0.6362012727
     -1.1486527975
      0.0179436419
     -2.1120622265
     -1.9119376374
     -2.7897309323
      0.8053365012
      3.4134947954
      2.1814491203
      0.0847025139
     -4.4798886652
      2.9716216598
     -3.7346234232
     -2.9909962936
     -3.9019453199
     -0.5060228124
      0.1036890282
     -4.5674537213
     -0.3648125810
      0.3270793774
     -0.3357757156
     -0.2421206903
     -0.0471117253
      0.0682029655
      0.1511295934
     -0.5446574617
     -2.6349615933
      0.5140742134
     -0.3464157217
     -4.1056655829
      0.2465188833
     -0.1948960753
     -0.4342445899
      0.5030375945
     -1.8599932897
     -1.6852546092
      0.9365282949
     -0.7148243013
     -2.1405406624
      0.9422050207
      0.8571312076
      2.5981051522
      7.2976554105
      0.9182423307
     -3.3423024908
      0.7999435592
      0.2083713519
      0.5108996677
      0.6431498592
      0.0963918304
      0.5782890984
     -0.8102285415
     -0.2091224511
     -0.5709434107
     -0.6789992386
      0.0022317348
      1.2939931634
     -0.1156861901
      0.8692050228
      6.5305558004
      0.0109932519
      0.1647647685
      0.4904353940
      0.0776523607
      0.0185820563
     -0.1337386816
     -0.1763838126
      0.0814117322
      0.7318259294
      0.0325979512
     -0.3224999897
     -2.3964278011
      2.3567322353
      0.6171091279
     -1.0301454644
      0.2714243349
      0.4905459784
     -0.5781350963
     -0.3163809972
      0.2862057348
     -0.4805553828
     -2.0975994539
     -2.0805542719
     -1.2548114052
     -1.1062476805
      0.9030303736
      2.2063631933
     -6.3075486986
     -0.4984383078
     -3.9096807144
      0.9400471251
      0.4596025432
      2.6534515209
      0.0226273478
      1.6704101679
     -1.0479252326
      0.2343723920
     -0.2185297141
     -0.1113286326
     -1.1073786918
      1.0065083581
      2.9304615811
     -1.0104260884
     -1.0820432789
     -0.4179347878
      0.7721836413
      0.1451057059
      0.6532977359
     -1.0815478372
     -0.6034377789
     -0.5513831402
     -0.0012614559
     -0.4557237774
     -0.0050613247
      0.8988746514
     -1.3446647405
     -2.6856774186
     -0.1341463627
     -1.6433285083
     -0.7246325426
     -1.1331907616
     -0.0459564783
     -1.0797095312
     -1.7105561841
     -0.7337985039
     -1.2920391443
     -1.6848861278
     -1.5775549050
     -0.3786806667
     -1.0359066130
     -0.8102494474
      0.4576366039
     11.7609176548
     -2.3761850056
    -10.9837733783
      0.7583367947
     -1.7922067893
      1.6582698081
     -0.5344728523
     -0.4992711101
      0.4270114570
      0.5780322899
      1.3373685078
     -1.2748658066
      0.9633816591
      0.0042092331
     -2.5311012964
     -0.1731143414
     -0.7519165310
      0.3636759151
      0.0674839662
     -1.0241027674
     -0.2383511541
      0.0869485028
      0.0277943506
     -0.0235403549
      0.5541846647
      0.0601400403
     -0.0034346068
      0.2287817481
     -0.0845925689
      7.3436938458
     -0.0030422222
     -0.0424364601
     -0.0023505530
      0.1900700609
      0.2722696006
      0.0800229672
      7.9716004770
